<?xml version="1.0"?>
<opencv_storage>
<my_random_trees type_id="opencv-ml-random-trees">
  <nclasses>2</nclasses>
  <nsamples>513</nsamples>
  <nactive_vars>4</nactive_vars>
  <oob_error>6.8421052631578952e-002</oob_error>
  <ntrees>100</ntrees>
  <is_classifier>1</is_classifier>
  <var_all>8614</var_all>
  <var_count>8614</var_count>
  <ord_var_count>8614</ord_var_count>
  <cat_var_count>0</cat_var_count>
  <training_params>
    <use_surrogates>0</use_surrogates>
    <max_categories>15</max_categories>
    <max_depth>25</max_depth>
    <min_sample_count>5</min_sample_count>
    <cross_validation_folds>0</cross_validation_folds>
    <priors type_id="opencv-matrix">
      <rows>1</rows>
      <cols>2</cols>
      <dt>d</dt>
      <data>
        5.0000000000000000e-001 5.0000000000000000e-001</data></priors></training_params>
  <var_type>
    0 0 0 0 0 0 0 0 0 0 0 0 0 0 0 0 0 0 0 0 0 0 0 0 0 0 0 0 0 0 0 0 0 0
    0 0 0 0 0 0 0 0 0 0 0 0 0 0 0 0 0 0 0 0 0 0 0 0 0 0 0 0 0 0 0 0 0 0
    0 0 0 0 0 0 0 0 0 0 0 0 0 0 0 0 0 0 0 0 0 0 0 0 0 0 0 0 0 0 0 0 0 0
    0 0 0 0 0 0 0 0 0 0 0 0 0 0 0 0 0 0 0 0 0 0 0 0 0 0 0 0 0 0 0 0 0 0
    0 0 0 0 0 0 0 0 0 0 0 0 0 0 0 0 0 0 0 0 0 0 0 0 0 0 0 0 0 0 0 0 0 0
    0 0 0 0 0 0 0 0 0 0 0 0 0 0 0 0 0 0 0 0 0 0 0 0 0 0 0 0 0 0 0 0 0 0
    0 0 0 0 0 0 0 0 0 0 0 0 0 0 0 0 0 0 0 0 0 0 0 0 0 0 0 0 0 0 0 0 0 0
    0 0 0 0 0 0 0 0 0 0 0 0 0 0 0 0 0 0 0 0 0 0 0 0 0 0 0 0 0 0 0 0 0 0
    0 0 0 0 0 0 0 0 0 0 0 0 0 0 0 0 0 0 0 0 0 0 0 0 0 0 0 0 0 0 0 0 0 0
    0 0 0 0 0 0 0 0 0 0 0 0 0 0 0 0 0 0 0 0 0 0 0 0 0 0 0 0 0 0 0 0 0 0
    0 0 0 0 0 0 0 0 0 0 0 0 0 0 0 0 0 0 0 0 0 0 0 0 0 0 0 0 0 0 0 0 0 0
    0 0 0 0 0 0 0 0 0 0 0 0 0 0 0 0 0 0 0 0 0 0 0 0 0 0 0 0 0 0 0 0 0 0
    0 0 0 0 0 0 0 0 0 0 0 0 0 0 0 0 0 0 0 0 0 0 0 0 0 0 0 0 0 0 0 0 0 0
    0 0 0 0 0 0 0 0 0 0 0 0 0 0 0 0 0 0 0 0 0 0 0 0 0 0 0 0 0 0 0 0 0 0
    0 0 0 0 0 0 0 0 0 0 0 0 0 0 0 0 0 0 0 0 0 0 0 0 0 0 0 0 0 0 0 0 0 0
    0 0 0 0 0 0 0 0 0 0 0 0 0 0 0 0 0 0 0 0 0 0 0 0 0 0 0 0 0 0 0 0 0 0
    0 0 0 0 0 0 0 0 0 0 0 0 0 0 0 0 0 0 0 0 0 0 0 0 0 0 0 0 0 0 0 0 0 0
    0 0 0 0 0 0 0 0 0 0 0 0 0 0 0 0 0 0 0 0 0 0 0 0 0 0 0 0 0 0 0 0 0 0
    0 0 0 0 0 0 0 0 0 0 0 0 0 0 0 0 0 0 0 0 0 0 0 0 0 0 0 0 0 0 0 0 0 0
    0 0 0 0 0 0 0 0 0 0 0 0 0 0 0 0 0 0 0 0 0 0 0 0 0 0 0 0 0 0 0 0 0 0
    0 0 0 0 0 0 0 0 0 0 0 0 0 0 0 0 0 0 0 0 0 0 0 0 0 0 0 0 0 0 0 0 0 0
    0 0 0 0 0 0 0 0 0 0 0 0 0 0 0 0 0 0 0 0 0 0 0 0 0 0 0 0 0 0 0 0 0 0
    0 0 0 0 0 0 0 0 0 0 0 0 0 0 0 0 0 0 0 0 0 0 0 0 0 0 0 0 0 0 0 0 0 0
    0 0 0 0 0 0 0 0 0 0 0 0 0 0 0 0 0 0 0 0 0 0 0 0 0 0 0 0 0 0 0 0 0 0
    0 0 0 0 0 0 0 0 0 0 0 0 0 0 0 0 0 0 0 0 0 0 0 0 0 0 0 0 0 0 0 0 0 0
    0 0 0 0 0 0 0 0 0 0 0 0 0 0 0 0 0 0 0 0 0 0 0 0 0 0 0 0 0 0 0 0 0 0
    0 0 0 0 0 0 0 0 0 0 0 0 0 0 0 0 0 0 0 0 0 0 0 0 0 0 0 0 0 0 0 0 0 0
    0 0 0 0 0 0 0 0 0 0 0 0 0 0 0 0 0 0 0 0 0 0 0 0 0 0 0 0 0 0 0 0 0 0
    0 0 0 0 0 0 0 0 0 0 0 0 0 0 0 0 0 0 0 0 0 0 0 0 0 0 0 0 0 0 0 0 0 0
    0 0 0 0 0 0 0 0 0 0 0 0 0 0 0 0 0 0 0 0 0 0 0 0 0 0 0 0 0 0 0 0 0 0
    0 0 0 0 0 0 0 0 0 0 0 0 0 0 0 0 0 0 0 0 0 0 0 0 0 0 0 0 0 0 0 0 0 0
    0 0 0 0 0 0 0 0 0 0 0 0 0 0 0 0 0 0 0 0 0 0 0 0 0 0 0 0 0 0 0 0 0 0
    0 0 0 0 0 0 0 0 0 0 0 0 0 0 0 0 0 0 0 0 0 0 0 0 0 0 0 0 0 0 0 0 0 0
    0 0 0 0 0 0 0 0 0 0 0 0 0 0 0 0 0 0 0 0 0 0 0 0 0 0 0 0 0 0 0 0 0 0
    0 0 0 0 0 0 0 0 0 0 0 0 0 0 0 0 0 0 0 0 0 0 0 0 0 0 0 0 0 0 0 0 0 0
    0 0 0 0 0 0 0 0 0 0 0 0 0 0 0 0 0 0 0 0 0 0 0 0 0 0 0 0 0 0 0 0 0 0
    0 0 0 0 0 0 0 0 0 0 0 0 0 0 0 0 0 0 0 0 0 0 0 0 0 0 0 0 0 0 0 0 0 0
    0 0 0 0 0 0 0 0 0 0 0 0 0 0 0 0 0 0 0 0 0 0 0 0 0 0 0 0 0 0 0 0 0 0
    0 0 0 0 0 0 0 0 0 0 0 0 0 0 0 0 0 0 0 0 0 0 0 0 0 0 0 0 0 0 0 0 0 0
    0 0 0 0 0 0 0 0 0 0 0 0 0 0 0 0 0 0 0 0 0 0 0 0 0 0 0 0 0 0 0 0 0 0
    0 0 0 0 0 0 0 0 0 0 0 0 0 0 0 0 0 0 0 0 0 0 0 0 0 0 0 0 0 0 0 0 0 0
    0 0 0 0 0 0 0 0 0 0 0 0 0 0 0 0 0 0 0 0 0 0 0 0 0 0 0 0 0 0 0 0 0 0
    0 0 0 0 0 0 0 0 0 0 0 0 0 0 0 0 0 0 0 0 0 0 0 0 0 0 0 0 0 0 0 0 0 0
    0 0 0 0 0 0 0 0 0 0 0 0 0 0 0 0 0 0 0 0 0 0 0 0 0 0 0 0 0 0 0 0 0 0
    0 0 0 0 0 0 0 0 0 0 0 0 0 0 0 0 0 0 0 0 0 0 0 0 0 0 0 0 0 0 0 0 0 0
    0 0 0 0 0 0 0 0 0 0 0 0 0 0 0 0 0 0 0 0 0 0 0 0 0 0 0 0 0 0 0 0 0 0
    0 0 0 0 0 0 0 0 0 0 0 0 0 0 0 0 0 0 0 0 0 0 0 0 0 0 0 0 0 0 0 0 0 0
    0 0 0 0 0 0 0 0 0 0 0 0 0 0 0 0 0 0 0 0 0 0 0 0 0 0 0 0 0 0 0 0 0 0
    0 0 0 0 0 0 0 0 0 0 0 0 0 0 0 0 0 0 0 0 0 0 0 0 0 0 0 0 0 0 0 0 0 0
    0 0 0 0 0 0 0 0 0 0 0 0 0 0 0 0 0 0 0 0 0 0 0 0 0 0 0 0 0 0 0 0 0 0
    0 0 0 0 0 0 0 0 0 0 0 0 0 0 0 0 0 0 0 0 0 0 0 0 0 0 0 0 0 0 0 0 0 0
    0 0 0 0 0 0 0 0 0 0 0 0 0 0 0 0 0 0 0 0 0 0 0 0 0 0 0 0 0 0 0 0 0 0
    0 0 0 0 0 0 0 0 0 0 0 0 0 0 0 0 0 0 0 0 0 0 0 0 0 0 0 0 0 0 0 0 0 0
    0 0 0 0 0 0 0 0 0 0 0 0 0 0 0 0 0 0 0 0 0 0 0 0 0 0 0 0 0 0 0 0 0 0
    0 0 0 0 0 0 0 0 0 0 0 0 0 0 0 0 0 0 0 0 0 0 0 0 0 0 0 0 0 0 0 0 0 0
    0 0 0 0 0 0 0 0 0 0 0 0 0 0 0 0 0 0 0 0 0 0 0 0 0 0 0 0 0 0 0 0 0 0
    0 0 0 0 0 0 0 0 0 0 0 0 0 0 0 0 0 0 0 0 0 0 0 0 0 0 0 0 0 0 0 0 0 0
    0 0 0 0 0 0 0 0 0 0 0 0 0 0 0 0 0 0 0 0 0 0 0 0 0 0 0 0 0 0 0 0 0 0
    0 0 0 0 0 0 0 0 0 0 0 0 0 0 0 0 0 0 0 0 0 0 0 0 0 0 0 0 0 0 0 0 0 0
    0 0 0 0 0 0 0 0 0 0 0 0 0 0 0 0 0 0 0 0 0 0 0 0 0 0 0 0 0 0 0 0 0 0
    0 0 0 0 0 0 0 0 0 0 0 0 0 0 0 0 0 0 0 0 0 0 0 0 0 0 0 0 0 0 0 0 0 0
    0 0 0 0 0 0 0 0 0 0 0 0 0 0 0 0 0 0 0 0 0 0 0 0 0 0 0 0 0 0 0 0 0 0
    0 0 0 0 0 0 0 0 0 0 0 0 0 0 0 0 0 0 0 0 0 0 0 0 0 0 0 0 0 0 0 0 0 0
    0 0 0 0 0 0 0 0 0 0 0 0 0 0 0 0 0 0 0 0 0 0 0 0 0 0 0 0 0 0 0 0 0 0
    0 0 0 0 0 0 0 0 0 0 0 0 0 0 0 0 0 0 0 0 0 0 0 0 0 0 0 0 0 0 0 0 0 0
    0 0 0 0 0 0 0 0 0 0 0 0 0 0 0 0 0 0 0 0 0 0 0 0 0 0 0 0 0 0 0 0 0 0
    0 0 0 0 0 0 0 0 0 0 0 0 0 0 0 0 0 0 0 0 0 0 0 0 0 0 0 0 0 0 0 0 0 0
    0 0 0 0 0 0 0 0 0 0 0 0 0 0 0 0 0 0 0 0 0 0 0 0 0 0 0 0 0 0 0 0 0 0
    0 0 0 0 0 0 0 0 0 0 0 0 0 0 0 0 0 0 0 0 0 0 0 0 0 0 0 0 0 0 0 0 0 0
    0 0 0 0 0 0 0 0 0 0 0 0 0 0 0 0 0 0 0 0 0 0 0 0 0 0 0 0 0 0 0 0 0 0
    0 0 0 0 0 0 0 0 0 0 0 0 0 0 0 0 0 0 0 0 0 0 0 0 0 0 0 0 0 0 0 0 0 0
    0 0 0 0 0 0 0 0 0 0 0 0 0 0 0 0 0 0 0 0 0 0 0 0 0 0 0 0 0 0 0 0 0 0
    0 0 0 0 0 0 0 0 0 0 0 0 0 0 0 0 0 0 0 0 0 0 0 0 0 0 0 0 0 0 0 0 0 0
    0 0 0 0 0 0 0 0 0 0 0 0 0 0 0 0 0 0 0 0 0 0 0 0 0 0 0 0 0 0 0 0 0 0
    0 0 0 0 0 0 0 0 0 0 0 0 0 0 0 0 0 0 0 0 0 0 0 0 0 0 0 0 0 0 0 0 0 0
    0 0 0 0 0 0 0 0 0 0 0 0 0 0 0 0 0 0 0 0 0 0 0 0 0 0 0 0 0 0 0 0 0 0
    0 0 0 0 0 0 0 0 0 0 0 0 0 0 0 0 0 0 0 0 0 0 0 0 0 0 0 0 0 0 0 0 0 0
    0 0 0 0 0 0 0 0 0 0 0 0 0 0 0 0 0 0 0 0 0 0 0 0 0 0 0 0 0 0 0 0 0 0
    0 0 0 0 0 0 0 0 0 0 0 0 0 0 0 0 0 0 0 0 0 0 0 0 0 0 0 0 0 0 0 0 0 0
    0 0 0 0 0 0 0 0 0 0 0 0 0 0 0 0 0 0 0 0 0 0 0 0 0 0 0 0 0 0 0 0 0 0
    0 0 0 0 0 0 0 0 0 0 0 0 0 0 0 0 0 0 0 0 0 0 0 0 0 0 0 0 0 0 0 0 0 0
    0 0 0 0 0 0 0 0 0 0 0 0 0 0 0 0 0 0 0 0 0 0 0 0 0 0 0 0 0 0 0 0 0 0
    0 0 0 0 0 0 0 0 0 0 0 0 0 0 0 0 0 0 0 0 0 0 0 0 0 0 0 0 0 0 0 0 0 0
    0 0 0 0 0 0 0 0 0 0 0 0 0 0 0 0 0 0 0 0 0 0 0 0 0 0 0 0 0 0 0 0 0 0
    0 0 0 0 0 0 0 0 0 0 0 0 0 0 0 0 0 0 0 0 0 0 0 0 0 0 0 0 0 0 0 0 0 0
    0 0 0 0 0 0 0 0 0 0 0 0 0 0 0 0 0 0 0 0 0 0 0 0 0 0 0 0 0 0 0 0 0 0
    0 0 0 0 0 0 0 0 0 0 0 0 0 0 0 0 0 0 0 0 0 0 0 0 0 0 0 0 0 0 0 0 0 0
    0 0 0 0 0 0 0 0 0 0 0 0 0 0 0 0 0 0 0 0 0 0 0 0 0 0 0 0 0 0 0 0 0 0
    0 0 0 0 0 0 0 0 0 0 0 0 0 0 0 0 0 0 0 0 0 0 0 0 0 0 0 0 0 0 0 0 0 0
    0 0 0 0 0 0 0 0 0 0 0 0 0 0 0 0 0 0 0 0 0 0 0 0 0 0 0 0 0 0 0 0 0 0
    0 0 0 0 0 0 0 0 0 0 0 0 0 0 0 0 0 0 0 0 0 0 0 0 0 0 0 0 0 0 0 0 0 0
    0 0 0 0 0 0 0 0 0 0 0 0 0 0 0 0 0 0 0 0 0 0 0 0 0 0 0 0 0 0 0 0 0 0
    0 0 0 0 0 0 0 0 0 0 0 0 0 0 0 0 0 0 0 0 0 0 0 0 0 0 0 0 0 0 0 0 0 0
    0 0 0 0 0 0 0 0 0 0 0 0 0 0 0 0 0 0 0 0 0 0 0 0 0 0 0 0 0 0 0 0 0 0
    0 0 0 0 0 0 0 0 0 0 0 0 0 0 0 0 0 0 0 0 0 0 0 0 0 0 0 0 0 0 0 0 0 0
    0 0 0 0 0 0 0 0 0 0 0 0 0 0 0 0 0 0 0 0 0 0 0 0 0 0 0 0 0 0 0 0 0 0
    0 0 0 0 0 0 0 0 0 0 0 0 0 0 0 0 0 0 0 0 0 0 0 0 0 0 0 0 0 0 0 0 0 0
    0 0 0 0 0 0 0 0 0 0 0 0 0 0 0 0 0 0 0 0 0 0 0 0 0 0 0 0 0 0 0 0 0 0
    0 0 0 0 0 0 0 0 0 0 0 0 0 0 0 0 0 0 0 0 0 0 0 0 0 0 0 0 0 0 0 0 0 0
    0 0 0 0 0 0 0 0 0 0 0 0 0 0 0 0 0 0 0 0 0 0 0 0 0 0 0 0 0 0 0 0 0 0
    0 0 0 0 0 0 0 0 0 0 0 0 0 0 0 0 0 0 0 0 0 0 0 0 0 0 0 0 0 0 0 0 0 0
    0 0 0 0 0 0 0 0 0 0 0 0 0 0 0 0 0 0 0 0 0 0 0 0 0 0 0 0 0 0 0 0 0 0
    0 0 0 0 0 0 0 0 0 0 0 0 0 0 0 0 0 0 0 0 0 0 0 0 0 0 0 0 0 0 0 0 0 0
    0 0 0 0 0 0 0 0 0 0 0 0 0 0 0 0 0 0 0 0 0 0 0 0 0 0 0 0 0 0 0 0 0 0
    0 0 0 0 0 0 0 0 0 0 0 0 0 0 0 0 0 0 0 0 0 0 0 0 0 0 0 0 0 0 0 0 0 0
    0 0 0 0 0 0 0 0 0 0 0 0 0 0 0 0 0 0 0 0 0 0 0 0 0 0 0 0 0 0 0 0 0 0
    0 0 0 0 0 0 0 0 0 0 0 0 0 0 0 0 0 0 0 0 0 0 0 0 0 0 0 0 0 0 0 0 0 0
    0 0 0 0 0 0 0 0 0 0 0 0 0 0 0 0 0 0 0 0 0 0 0 0 0 0 0 0 0 0 0 0 0 0
    0 0 0 0 0 0 0 0 0 0 0 0 0 0 0 0 0 0 0 0 0 0 0 0 0 0 0 0 0 0 0 0 0 0
    0 0 0 0 0 0 0 0 0 0 0 0 0 0 0 0 0 0 0 0 0 0 0 0 0 0 0 0 0 0 0 0 0 0
    0 0 0 0 0 0 0 0 0 0 0 0 0 0 0 0 0 0 0 0 0 0 0 0 0 0 0 0 0 0 0 0 0 0
    0 0 0 0 0 0 0 0 0 0 0 0 0 0 0 0 0 0 0 0 0 0 0 0 0 0 0 0 0 0 0 0 0 0
    0 0 0 0 0 0 0 0 0 0 0 0 0 0 0 0 0 0 0 0 0 0 0 0 0 0 0 0 0 0 0 0 0 0
    0 0 0 0 0 0 0 0 0 0 0 0 0 0 0 0 0 0 0 0 0 0 0 0 0 0 0 0 0 0 0 0 0 0
    0 0 0 0 0 0 0 0 0 0 0 0 0 0 0 0 0 0 0 0 0 0 0 0 0 0 0 0 0 0 0 0 0 0
    0 0 0 0 0 0 0 0 0 0 0 0 0 0 0 0 0 0 0 0 0 0 0 0 0 0 0 0 0 0 0 0 0 0
    0 0 0 0 0 0 0 0 0 0 0 0 0 0 0 0 0 0 0 0 0 0 0 0 0 0 0 0 0 0 0 0 0 0
    0 0 0 0 0 0 0 0 0 0 0 0 0 0 0 0 0 0 0 0 0 0 0 0 0 0 0 0 0 0 0 0 0 0
    0 0 0 0 0 0 0 0 0 0 0 0 0 0 0 0 0 0 0 0 0 0 0 0 0 0 0 0 0 0 0 0 0 0
    0 0 0 0 0 0 0 0 0 0 0 0 0 0 0 0 0 0 0 0 0 0 0 0 0 0 0 0 0 0 0 0 0 0
    0 0 0 0 0 0 0 0 0 0 0 0 0 0 0 0 0 0 0 0 0 0 0 0 0 0 0 0 0 0 0 0 0 0
    0 0 0 0 0 0 0 0 0 0 0 0 0 0 0 0 0 0 0 0 0 0 0 0 0 0 0 0 0 0 0 0 0 0
    0 0 0 0 0 0 0 0 0 0 0 0 0 0 0 0 0 0 0 0 0 0 0 0 0 0 0 0 0 0 0 0 0 0
    0 0 0 0 0 0 0 0 0 0 0 0 0 0 0 0 0 0 0 0 0 0 0 0 0 0 0 0 0 0 0 0 0 0
    0 0 0 0 0 0 0 0 0 0 0 0 0 0 0 0 0 0 0 0 0 0 0 0 0 0 0 0 0 0 0 0 0 0
    0 0 0 0 0 0 0 0 0 0 0 0 0 0 0 0 0 0 0 0 0 0 0 0 0 0 0 0 0 0 0 0 0 0
    0 0 0 0 0 0 0 0 0 0 0 0 0 0 0 0 0 0 0 0 0 0 0 0 0 0 0 0 0 0 0 0 0 0
    0 0 0 0 0 0 0 0 0 0 0 0 0 0 0 0 0 0 0 0 0 0 0 0 0 0 0 0 0 0 0 0 0 0
    0 0 0 0 0 0 0 0 0 0 0 0 0 0 0 0 0 0 0 0 0 0 0 0 0 0 0 0 0 0 0 0 0 0
    0 0 0 0 0 0 0 0 0 0 0 0 0 0 0 0 0 0 0 0 0 0 0 0 0 0 0 0 0 0 0 0 0 0
    0 0 0 0 0 0 0 0 0 0 0 0 0 0 0 0 0 0 0 0 0 0 0 0 0 0 0 0 0 0 0 0 0 0
    0 0 0 0 0 0 0 0 0 0 0 0 0 0 0 0 0 0 0 0 0 0 0 0 0 0 0 0 0 0 0 0 0 0
    0 0 0 0 0 0 0 0 0 0 0 0 0 0 0 0 0 0 0 0 0 0 0 0 0 0 0 0 0 0 0 0 0 0
    0 0 0 0 0 0 0 0 0 0 0 0 0 0 0 0 0 0 0 0 0 0 0 0 0 0 0 0 0 0 0 0 0 0
    0 0 0 0 0 0 0 0 0 0 0 0 0 0 0 0 0 0 0 0 0 0 0 0 0 0 0 0 0 0 0 0 0 0
    0 0 0 0 0 0 0 0 0 0 0 0 0 0 0 0 0 0 0 0 0 0 0 0 0 0 0 0 0 0 0 0 0 0
    0 0 0 0 0 0 0 0 0 0 0 0 0 0 0 0 0 0 0 0 0 0 0 0 0 0 0 0 0 0 0 0 0 0
    0 0 0 0 0 0 0 0 0 0 0 0 0 0 0 0 0 0 0 0 0 0 0 0 0 0 0 0 0 0 0 0 0 0
    0 0 0 0 0 0 0 0 0 0 0 0 0 0 0 0 0 0 0 0 0 0 0 0 0 0 0 0 0 0 0 0 0 0
    0 0 0 0 0 0 0 0 0 0 0 0 0 0 0 0 0 0 0 0 0 0 0 0 0 0 0 0 0 0 0 0 0 0
    0 0 0 0 0 0 0 0 0 0 0 0 0 0 0 0 0 0 0 0 0 0 0 0 0 0 0 0 0 0 0 0 0 0
    0 0 0 0 0 0 0 0 0 0 0 0 0 0 0 0 0 0 0 0 0 0 0 0 0 0 0 0 0 0 0 0 0 0
    0 0 0 0 0 0 0 0 0 0 0 0 0 0 0 0 0 0 0 0 0 0 0 0 0 0 0 0 0 0 0 0 0 0
    0 0 0 0 0 0 0 0 0 0 0 0 0 0 0 0 0 0 0 0 0 0 0 0 0 0 0 0 0 0 0 0 0 0
    0 0 0 0 0 0 0 0 0 0 0 0 0 0 0 0 0 0 0 0 0 0 0 0 0 0 0 0 0 0 0 0 0 0
    0 0 0 0 0 0 0 0 0 0 0 0 0 0 0 0 0 0 0 0 0 0 0 0 0 0 0 0 0 0 0 0 0 0
    0 0 0 0 0 0 0 0 0 0 0 0 0 0 0 0 0 0 0 0 0 0 0 0 0 0 0 0 0 0 0 0 0 0
    0 0 0 0 0 0 0 0 0 0 0 0 0 0 0 0 0 0 0 0 0 0 0 0 0 0 0 0 0 0 0 0 0 0
    0 0 0 0 0 0 0 0 0 0 0 0 0 0 0 0 0 0 0 0 0 0 0 0 0 0 0 0 0 0 0 0 0 0
    0 0 0 0 0 0 0 0 0 0 0 0 0 0 0 0 0 0 0 0 0 0 0 0 0 0 0 0 0 0 0 0 0 0
    0 0 0 0 0 0 0 0 0 0 0 0 0 0 0 0 0 0 0 0 0 0 0 0 0 0 0 0 0 0 0 0 0 0
    0 0 0 0 0 0 0 0 0 0 0 0 0 0 0 0 0 0 0 0 0 0 0 0 0 0 0 0 0 0 0 0 0 0
    0 0 0 0 0 0 0 0 0 0 0 0 0 0 0 0 0 0 0 0 0 0 0 0 0 0 0 0 0 0 0 0 0 0
    0 0 0 0 0 0 0 0 0 0 0 0 0 0 0 0 0 0 0 0 0 0 0 0 0 0 0 0 0 0 0 0 0 0
    0 0 0 0 0 0 0 0 0 0 0 0 0 0 0 0 0 0 0 0 0 0 0 0 0 0 0 0 0 0 0 0 0 0
    0 0 0 0 0 0 0 0 0 0 0 0 0 0 0 0 0 0 0 0 0 0 0 0 0 0 0 0 0 0 0 0 0 0
    0 0 0 0 0 0 0 0 0 0 0 0 0 0 0 0 0 0 0 0 0 0 0 0 0 0 0 0 0 0 0 0 0 0
    0 0 0 0 0 0 0 0 0 0 0 0 0 0 0 0 0 0 0 0 0 0 0 0 0 0 0 0 0 0 0 0 0 0
    0 0 0 0 0 0 0 0 0 0 0 0 0 0 0 0 0 0 0 0 0 0 0 0 0 0 0 0 0 0 0 0 0 0
    0 0 0 0 0 0 0 0 0 0 0 0 0 0 0 0 0 0 0 0 0 0 0 0 0 0 0 0 0 0 0 0 0 0
    0 0 0 0 0 0 0 0 0 0 0 0 0 0 0 0 0 0 0 0 0 0 0 0 0 0 0 0 0 0 0 0 0 0
    0 0 0 0 0 0 0 0 0 0 0 0 0 0 0 0 0 0 0 0 0 0 0 0 0 0 0 0 0 0 0 0 0 0
    0 0 0 0 0 0 0 0 0 0 0 0 0 0 0 0 0 0 0 0 0 0 0 0 0 0 0 0 0 0 0 0 0 0
    0 0 0 0 0 0 0 0 0 0 0 0 0 0 0 0 0 0 0 0 0 0 0 0 0 0 0 0 0 0 0 0 0 0
    0 0 0 0 0 0 0 0 0 0 0 0 0 0 0 0 0 0 0 0 0 0 0 0 0 0 0 0 0 0 0 0 0 0
    0 0 0 0 0 0 0 0 0 0 0 0 0 0 0 0 0 0 0 0 0 0 0 0 0 0 0 0 0 0 0 0 0 0
    0 0 0 0 0 0 0 0 0 0 0 0 0 0 0 0 0 0 0 0 0 0 0 0 0 0 0 0 0 0 0 0 0 0
    0 0 0 0 0 0 0 0 0 0 0 0 0 0 0 0 0 0 0 0 0 0 0 0 0 0 0 0 0 0 0 0 0 0
    0 0 0 0 0 0 0 0 0 0 0 0 0 0 0 0 0 0 0 0 0 0 0 0 0 0 0 0 0 0 0 0 0 0
    0 0 0 0 0 0 0 0 0 0 0 0 0 0 0 0 0 0 0 0 0 0 0 0 0 0 0 0 0 0 0 0 0 0
    0 0 0 0 0 0 0 0 0 0 0 0 0 0 0 0 0 0 0 0 0 0 0 0 0 0 0 0 0 0 0 0 0 0
    0 0 0 0 0 0 0 0 0 0 0 0 0 0 0 0 0 0 0 0 0 0 0 0 0 0 0 0 0 0 0 0 0 0
    0 0 0 0 0 0 0 0 0 0 0 0 0 0 0 0 0 0 0 0 0 0 0 0 0 0 0 0 0 0 0 0 0 0
    0 0 0 0 0 0 0 0 0 0 0 0 0 0 0 0 0 0 0 0 0 0 0 0 0 0 0 0 0 0 0 0 0 0
    0 0 0 0 0 0 0 0 0 0 0 0 0 0 0 0 0 0 0 0 0 0 0 0 0 0 0 0 0 0 0 0 0 0
    0 0 0 0 0 0 0 0 0 0 0 0 0 0 0 0 0 0 0 0 0 0 0 0 0 0 0 0 0 0 0 0 0 0
    0 0 0 0 0 0 0 0 0 0 0 0 0 0 0 0 0 0 0 0 0 0 0 0 0 0 0 0 0 0 0 0 0 0
    0 0 0 0 0 0 0 0 0 0 0 0 0 0 0 0 0 0 0 0 0 0 0 0 0 0 0 0 0 0 0 0 0 0
    0 0 0 0 0 0 0 0 0 0 0 0 0 0 0 0 0 0 0 0 0 0 0 0 0 0 0 0 0 0 0 0 0 0
    0 0 0 0 0 0 0 0 0 0 0 0 0 0 0 0 0 0 0 0 0 0 0 0 0 0 0 0 0 0 0 0 0 0
    0 0 0 0 0 0 0 0 0 0 0 0 0 0 0 0 0 0 0 0 0 0 0 0 0 0 0 0 0 0 0 0 0 0
    0 0 0 0 0 0 0 0 0 0 0 0 0 0 0 0 0 0 0 0 0 0 0 0 0 0 0 0 0 0 0 0 0 0
    0 0 0 0 0 0 0 0 0 0 0 0 0 0 0 0 0 0 0 0 0 0 0 0 0 0 0 0 0 0 0 0 0 0
    0 0 0 0 0 0 0 0 0 0 0 0 0 0 0 0 0 0 0 0 0 0 0 0 0 0 0 0 0 0 0 0 0 0
    0 0 0 0 0 0 0 0 0 0 0 0 0 0 0 0 0 0 0 0 0 0 0 0 0 0 0 0 0 0 0 0 0 0
    0 0 0 0 0 0 0 0 0 0 0 0 0 0 0 0 0 0 0 0 0 0 0 0 0 0 0 0 0 0 0 0 0 0
    0 0 0 0 0 0 0 0 0 0 0 0 0 0 0 0 0 0 0 0 0 0 0 0 0 0 0 0 0 0 0 0 0 0
    0 0 0 0 0 0 0 0 0 0 0 0 0 0 0 0 0 0 0 0 0 0 0 0 0 0 0 0 0 0 0 0 0 0
    0 0 0 0 0 0 0 0 0 0 0 0 0 0 0 0 0 0 0 0 0 0 0 0 0 0 0 0 0 0 0 0 0 0
    0 0 0 0 0 0 0 0 0 0 0 0 0 0 0 0 0 0 0 0 0 0 0 0 0 0 0 0 0 0 0 0 0 0
    0 0 0 0 0 0 0 0 0 0 0 0 0 0 0 0 0 0 0 0 0 0 0 0 0 0 0 0 0 0 0 0 0 0
    0 0 0 0 0 0 0 0 0 0 0 0 0 0 0 0 0 0 0 0 0 0 0 0 0 0 0 0 0 0 0 0 0 0
    0 0 0 0 0 0 0 0 0 0 0 0 0 0 0 0 0 0 0 0 0 0 0 0 0 0 0 0 0 0 0 0 0 0
    0 0 0 0 0 0 0 0 0 0 0 0 0 0 0 0 0 0 0 0 0 0 0 0 0 0 0 0 0 0 0 0 0 0
    0 0 0 0 0 0 0 0 0 0 0 0 0 0 0 0 0 0 0 0 0 0 0 0 0 0 0 0 0 0 0 0 0 0
    0 0 0 0 0 0 0 0 0 0 0 0 0 0 0 0 0 0 0 0 0 0 0 0 0 0 0 0 0 0 0 0 0 0
    0 0 0 0 0 0 0 0 0 0 0 0 0 0 0 0 0 0 0 0 0 0 0 0 0 0 0 0 0 0 0 0 0 0
    0 0 0 0 0 0 0 0 0 0 0 0 0 0 0 0 0 0 0 0 0 0 0 0 0 0 0 0 0 0 0 0 0 0
    0 0 0 0 0 0 0 0 0 0 0 0 0 0 0 0 0 0 0 0 0 0 0 0 0 0 0 0 0 0 0 0 0 0
    0 0 0 0 0 0 0 0 0 0 0 0 0 0 0 0 0 0 0 0 0 0 0 0 0 0 0 0 0 0 0 0 0 0
    0 0 0 0 0 0 0 0 0 0 0 0 0 0 0 0 0 0 0 0 0 0 0 0 0 0 0 0 0 0 0 0 0 0
    0 0 0 0 0 0 0 0 0 0 0 0 0 0 0 0 0 0 0 0 0 0 0 0 0 0 0 0 0 0 0 0 0 0
    0 0 0 0 0 0 0 0 0 0 0 0 0 0 0 0 0 0 0 0 0 0 0 0 0 0 0 0 0 0 0 0 0 0
    0 0 0 0 0 0 0 0 0 0 0 0 0 0 0 0 0 0 0 0 0 0 0 0 0 0 0 0 0 0 0 0 0 0
    0 0 0 0 0 0 0 0 0 0 0 0 0 0 0 0 0 0 0 0 0 0 0 0 0 0 0 0 0 0 0 0 0 0
    0 0 0 0 0 0 0 0 0 0 0 0 0 0 0 0 0 0 0 0 0 0 0 0 0 0 0 0 0 0 0 0 0 0
    0 0 0 0 0 0 0 0 0 0 0 0 0 0 0 0 0 0 0 0 0 0 0 0 0 0 0 0 0 0 0 0 0 0
    0 0 0 0 0 0 0 0 0 0 0 0 0 0 0 0 0 0 0 0 0 0 0 0 0 0 0 0 0 0 0 0 0 0
    0 0 0 0 0 0 0 0 0 0 0 0 0 0 0 0 0 0 0 0 0 0 0 0 0 0 0 0 0 0 0 0 0 0
    0 0 0 0 0 0 0 0 0 0 0 0 0 0 0 0 0 0 0 0 0 0 0 0 0 0 0 0 0 0 0 0 0 0
    0 0 0 0 0 0 0 0 0 0 0 0 0 0 0 0 0 0 0 0 0 0 0 0 0 0 0 0 0 0 0 0 0 0
    0 0 0 0 0 0 0 0 0 0 0 0 0 0 0 0 0 0 0 0 0 0 0 0 0 0 0 0 0 0 0 0 0 0
    0 0 0 0 0 0 0 0 0 0 0 0 0 0 0 0 0 0 0 0 0 0 0 0 0 0 0 0 0 0 0 0 0 0
    0 0 0 0 0 0 0 0 0 0 0 0 0 0 0 0 0 0 0 0 0 0 0 0 0 0 0 0 0 0 0 0 0 0
    0 0 0 0 0 0 0 0 0 0 0 0 0 0 0 0 0 0 0 0 0 0 0 0 0 0 0 0 0 0 0 0 0 0
    0 0 0 0 0 0 0 0 0 0 0 0 0 0 0 0 0 0 0 0 0 0 0 0 0 0 0 0 0 0 0 0 0 0
    0 0 0 0 0 0 0 0 0 0 0 0 0 0 0 0 0 0 0 0 0 0 0 0 0 0 0 0 0 0 0 0 0 0
    0 0 0 0 0 0 0 0 0 0 0 0 0 0 0 0 0 0 0 0 0 0 0 0 0 0 0 0 0 0 0 0 0 0
    0 0 0 0 0 0 0 0 0 0 0 0 0 0 0 0 0 0 0 0 0 0 0 0 0 0 0 0 0 0 0 0 0 0
    0 0 0 0 0 0 0 0 0 0 0 0 0 0 0 0 0 0 0 0 0 0 0 0 0 0 0 0 0 0 0 0 0 0
    0 0 0 0 0 0 0 0 0 0 0 0 0 0 0 0 0 0 0 0 0 0 0 0 0 0 0 0 0 0 0 0 0 0
    0 0 0 0 0 0 0 0 0 0 0 0 0 0 0 0 0 0 0 0 0 0 0 0 0 0 0 0 0 0 0 0 0 0
    0 0 0 0 0 0 0 0 0 0 0 0 0 0 0 0 0 0 0 0 0 0 0 0 0 0 0 0 0 0 0 0 0 0
    0 0 0 0 0 0 0 0 0 0 0 0 0 0 0 0 0 0 0 0 0 0 0 0 0 0 0 0 0 0 0 0 0 0
    0 0 0 0 0 0 0 0 0 0 0 0 0 0 0 0 0 0 0 0 0 0 0 0 0 0 0 0 0 0 0 0 0 0
    0 0 0 0 0 0 0 0 0 0 0 0 0 0 0 0 0 0 0 0 0 0 0 0 0 0 0 0 0 0 0 0 0 0
    0 0 0 0 0 0 0 0 0 0 0 0 0 0 0 0 0 0 0 0 0 0 0 0 0 0 0 0 0 0 0 0 0 0
    0 0 0 0 0 0 0 0 0 0 0 0 0 0 0 0 0 0 0 0 0 0 0 0 0 0 0 0 0 0 0 0 0 0
    0 0 0 0 0 0 0 0 0 0 0 0 0 0 0 0 0 0 0 0 0 0 0 0 0 0 0 0 0 0 0 0 0 0
    0 0 0 0 0 0 0 0 0 0 0 0 0 0 0 0 0 0 0 0 0 0 0 0 0 0 0 0 0 0 0 0 0 0
    0 0 0 0 0 0 0 0 0 0 0 0 0 0 0 0 0 0 0 0 0 0 0 0 0 0 0 0 0 0 0 0 0 0
    0 0 0 0 0 0 0 0 0 0 0 0 0 0 0 0 0 0 0 0 0 0 0 0 0 0 0 0 0 0 0 0 0 0
    0 0 0 0 0 0 0 0 0 0 0 0 0 0 0 0 0 0 0 0 0 0 0 0 0 0 0 0 0 0 0 0 0 0
    0 0 0 0 0 0 0 0 0 0 0 0 0 0 0 0 0 0 0 0 0 0 0 0 0 0 0 0 0 0 0 0 0 0
    0 0 0 0 0 0 0 0 0 0 0 0 0 0 0 0 0 0 0 0 0 0 0 0 0 0 0 0 0 0 0 0 0 0
    0 0 0 0 0 0 0 0 0 0 0 0 0 0 0 0 0 0 0 0 0 0 0 0 0 0 0 0 0 0 0 0 0 0
    0 0 0 0 0 0 0 0 0 0 0 0 0 0 0 0 0 0 0 0 0 0 0 0 0 0 0 0 0 0 0 0 0 0
    0 0 0 0 0 0 0 0 0 0 0 0 0 0 0 0 0 0 0 0 0 0 0 0 0 0 0 0 0 0 0 0 0 0
    0 0 0 0 0 0 0 0 0 0 0 0 0 0 0 0 0 0 0 0 0 0 0 0 0 0 0 0 0 0 0 0 0 0
    0 0 0 0 0 0 0 0 0 0 0 0 0 0 0 0 0 0 0 0 0 0 0 0 0 0 0 0 0 0 0 0 0 0
    0 0 0 0 0 0 0 0 0 0 0 0 0 0 0 0 0 0 0 0 0 0 0 0 0 0 0 0 0 0 0 0 0 0
    0 0 0 0 0 0 0 0 0 0 0 0 0 0 0 0 0 0 0 0 0 0 0 0 0 0 0 0 0 0 0 0 0 0
    0 0 0 0 0 0 0 0 0 0 0 0 0 0 0 0 0 0 0 0 0 0 0 0 0 0 0 0 0 0 0 0 0 0
    0 0 0 0 0 0 0 0 0 0 0 0 0 0 0 0 0 0 0 0 0 0 0 0 0 0 0 0 0 0 0 0 0 0
    0 0 0 0 0 0 0 0 0 0 0 0 0 0 0 0 0 0 0 0 0 0 0 0 0 0 0 0 0 0 0 0 0 0
    0 0 0 0 0 0 0 0 0 0 0 0 0 0 0 0 0 0 0 0 0 0 0 0 0 0 0 0 0 0 0 0 0 0
    0 0 0 0 0 0 0 0 0 0 0 0 0 0 0 0 0 0 0 0 0 0 0 0 0 0 0 0 0 0 0 0 0 0
    0 0 0 0 0 0 0 0 0 0 0 0 0 0 0 0 0 0 0 0 0 0 0 0 0 0 0 0 0 0 0 0 0 0
    0 0 0 0 0 0 0 0 0 0 0 0 0 0 0 0 0 0 0 0 0 0 0 0 0 0 0 0 0 0 0 0 0 0
    0 0 0 0 0 0 0 0 0 0 0 0 0 0 0 0 0 0 0 0 0 0 0 0 0 0 0 0 0 0 0 0 0 0
    0 0 0 0 0 0 0 0 0 0 0 0 0 0 0 0 0 0 0 0 0 0 0 0 0 0 0 0 0 0 0 0 0 0
    0 0 0 0 0 0 0 0 0 0 0 0 0 0 0 0 0 0 0 0 0 0 0 0 0 0 0 0 0 0 0 0 0 0
    0 0 0 0 0 0 0 0 0 0 0 0 0 0 0 0 0 0 0 0 0 0 0 0 0 0 0 0 0 0 0 0 0 0
    0 0 0 0 0 0 0 0 0 0 0 0</var_type>
  <cat_count type_id="opencv-matrix">
    <rows>1</rows>
    <cols>1</cols>
    <dt>i</dt>
    <data>
      2</data></cat_count>
  <cat_map type_id="opencv-matrix">
    <rows>1</rows>
    <cols>2</cols>
    <dt>i</dt>
    <data>
      0 1</data></cat_map>
  <trees>
    <_>
      <best_tree_idx>-1</best_tree_idx>
      <nodes>
        <_>
          <depth>0</depth>
          <sample_count>513</sample_count>
          <value>0.</value>
          <norm_class_idx>0</norm_class_idx>
          <Tn>0</Tn>
          <complexity>0</complexity>
          <alpha>0.</alpha>
          <node_risk>1.1623781676413256e+002</node_risk>
          <tree_risk>0.</tree_risk>
          <tree_error>0.</tree_error>
          <splits>
            <_><var>5783</var>
              <quality>1.3521382141113281e+002</quality>
              <le>6.3248500000000000e+004</le></_></splits></_>
        <_>
          <depth>1</depth>
          <sample_count>340</sample_count>
          <value>1.</value>
          <norm_class_idx>1</norm_class_idx>
          <Tn>0</Tn>
          <complexity>0</complexity>
          <alpha>0.</alpha>
          <node_risk>4.7017543859649109e+001</node_risk>
          <tree_risk>0.</tree_risk>
          <tree_error>0.</tree_error>
          <splits>
            <_><var>4005</var>
              <quality>9.1889038085937500e+001</quality>
              <le>2630.</le></_></splits></_>
        <_>
          <depth>2</depth>
          <sample_count>157</sample_count>
          <value>0.</value>
          <norm_class_idx>0</norm_class_idx>
          <Tn>0</Tn>
          <complexity>0</complexity>
          <alpha>0.</alpha>
          <node_risk>3.2962962962962976e+001</node_risk>
          <tree_risk>0.</tree_risk>
          <tree_error>0.</tree_error>
          <splits>
            <_><var>8568</var>
              <quality>4.0504611968994141e+001</quality>
              <le>-4.0661500000000000e+004</le></_></splits></_>
        <_>
          <depth>3</depth>
          <sample_count>102</sample_count>
          <value>1.</value>
          <norm_class_idx>1</norm_class_idx>
          <Tn>0</Tn>
          <complexity>0</complexity>
          <alpha>0.</alpha>
          <node_risk>1.8937621832358680e+001</node_risk>
          <tree_risk>0.</tree_risk>
          <tree_error>0.</tree_error>
          <splits>
            <_><var>8435</var>
              <quality>3.0733518600463867e+001</quality>
              <le>6.3857500000000000e+004</le></_></splits></_>
        <_>
          <depth>4</depth>
          <sample_count>80</sample_count>
          <value>1.</value>
          <norm_class_idx>1</norm_class_idx>
          <Tn>0</Tn>
          <complexity>0</complexity>
          <alpha>0.</alpha>
          <node_risk>7.1832358674463954e+000</node_risk>
          <tree_risk>0.</tree_risk>
          <tree_error>0.</tree_error>
          <splits>
            <_><var>739</var>
              <quality>2.1941013336181641e+001</quality>
              <le>3.6805000000000000e+003</le></_></splits></_>
        <_>
          <depth>5</depth>
          <sample_count>32</sample_count>
          <value>1.</value>
          <norm_class_idx>1</norm_class_idx>
          <Tn>0</Tn>
          <complexity>0</complexity>
          <alpha>0.</alpha>
          <node_risk>5.8771929824561404e+000</node_risk>
          <tree_risk>0.</tree_risk>
          <tree_error>0.</tree_error>
          <splits>
            <_><var>459</var>
              <quality>9.2235002517700195e+000</quality>
              <le>3.7985000000000000e+003</le></_></splits></_>
        <_>
          <depth>6</depth>
          <sample_count>28</sample_count>
          <value>1.</value>
          <norm_class_idx>1</norm_class_idx>
          <Tn>0</Tn>
          <complexity>0</complexity>
          <alpha>0.</alpha>
          <node_risk>3.2651072124756340e+000</node_risk>
          <tree_risk>0.</tree_risk>
          <tree_error>0.</tree_error>
          <splits>
            <_><var>1616</var>
              <quality>8.0997390747070312e+000</quality>
              <le>-1781.</le></_></splits></_>
        <_>
          <depth>7</depth>
          <sample_count>2</sample_count>
          <value>0.</value>
          <norm_class_idx>0</norm_class_idx>
          <Tn>0</Tn>
          <complexity>0</complexity>
          <alpha>0.</alpha>
          <node_risk>0.</node_risk>
          <tree_risk>0.</tree_risk>
          <tree_error>0.</tree_error></_>
        <_>
          <depth>7</depth>
          <sample_count>26</sample_count>
          <value>1.</value>
          <norm_class_idx>1</norm_class_idx>
          <Tn>0</Tn>
          <complexity>0</complexity>
          <alpha>0.</alpha>
          <node_risk>1.9590643274853807e+000</node_risk>
          <tree_risk>0.</tree_risk>
          <tree_error>0.</tree_error>
          <splits>
            <_><var>4069</var>
              <quality>8.7323141098022461e+000</quality>
              <le>-2950.</le></_></splits></_>
        <_>
          <depth>8</depth>
          <sample_count>2</sample_count>
          <value>0.</value>
          <norm_class_idx>0</norm_class_idx>
          <Tn>0</Tn>
          <complexity>0</complexity>
          <alpha>0.</alpha>
          <node_risk>0.</node_risk>
          <tree_risk>0.</tree_risk>
          <tree_error>0.</tree_error></_>
        <_>
          <depth>8</depth>
          <sample_count>24</sample_count>
          <value>1.</value>
          <norm_class_idx>1</norm_class_idx>
          <Tn>0</Tn>
          <complexity>0</complexity>
          <alpha>0.</alpha>
          <node_risk>6.5302144249512750e-001</node_risk>
          <tree_risk>0.</tree_risk>
          <tree_error>0.</tree_error>
          <splits>
            <_><var>7173</var>
              <quality>8.6335287094116211e+000</quality>
              <le>-2.5045000000000000e+003</le></_></splits></_>
        <_>
          <depth>9</depth>
          <sample_count>1</sample_count>
          <value>0.</value>
          <norm_class_idx>0</norm_class_idx>
          <Tn>0</Tn>
          <complexity>0</complexity>
          <alpha>0.</alpha>
          <node_risk>0.</node_risk>
          <tree_risk>0.</tree_risk>
          <tree_error>0.</tree_error></_>
        <_>
          <depth>9</depth>
          <sample_count>23</sample_count>
          <value>1.</value>
          <norm_class_idx>1</norm_class_idx>
          <Tn>0</Tn>
          <complexity>0</complexity>
          <alpha>0.</alpha>
          <node_risk>0.</node_risk>
          <tree_risk>0.</tree_risk>
          <tree_error>0.</tree_error></_>
        <_>
          <depth>6</depth>
          <sample_count>4</sample_count>
          <value>0.</value>
          <norm_class_idx>0</norm_class_idx>
          <Tn>0</Tn>
          <complexity>0</complexity>
          <alpha>0.</alpha>
          <node_risk>0.</node_risk>
          <tree_risk>0.</tree_risk>
          <tree_error>0.</tree_error></_>
        <_>
          <depth>5</depth>
          <sample_count>48</sample_count>
          <value>1.</value>
          <norm_class_idx>1</norm_class_idx>
          <Tn>0</Tn>
          <complexity>0</complexity>
          <alpha>0.</alpha>
          <node_risk>1.3060428849902550e+000</node_risk>
          <tree_risk>0.</tree_risk>
          <tree_error>0.</tree_error>
          <splits>
            <_><var>1704</var>
              <quality>1.6012348175048828e+001</quality>
              <le>2003.</le></_></splits></_>
        <_>
          <depth>6</depth>
          <sample_count>47</sample_count>
          <value>1.</value>
          <norm_class_idx>1</norm_class_idx>
          <Tn>0</Tn>
          <complexity>0</complexity>
          <alpha>0.</alpha>
          <node_risk>6.5302144249512750e-001</node_risk>
          <tree_risk>0.</tree_risk>
          <tree_error>0.</tree_error>
          <splits>
            <_><var>7935</var>
              <quality>1.5941167831420898e+001</quality>
              <le>6.3495000000000000e+003</le></_></splits></_>
        <_>
          <depth>7</depth>
          <sample_count>44</sample_count>
          <value>1.</value>
          <norm_class_idx>1</norm_class_idx>
          <Tn>0</Tn>
          <complexity>0</complexity>
          <alpha>0.</alpha>
          <node_risk>0.</node_risk>
          <tree_risk>0.</tree_risk>
          <tree_error>0.</tree_error></_>
        <_>
          <depth>7</depth>
          <sample_count>3</sample_count>
          <value>1.</value>
          <norm_class_idx>1</norm_class_idx>
          <Tn>0</Tn>
          <complexity>0</complexity>
          <alpha>0.</alpha>
          <node_risk>6.5302144249512672e-001</node_risk>
          <tree_risk>0.</tree_risk>
          <tree_error>0.</tree_error></_>
        <_>
          <depth>6</depth>
          <sample_count>1</sample_count>
          <value>0.</value>
          <norm_class_idx>0</norm_class_idx>
          <Tn>0</Tn>
          <complexity>0</complexity>
          <alpha>0.</alpha>
          <node_risk>0.</node_risk>
          <tree_risk>0.</tree_risk>
          <tree_error>0.</tree_error></_>
        <_>
          <depth>4</depth>
          <sample_count>22</sample_count>
          <value>0.</value>
          <norm_class_idx>0</norm_class_idx>
          <Tn>0</Tn>
          <complexity>0</complexity>
          <alpha>0.</alpha>
          <node_risk>1.3879142300194935e+000</node_risk>
          <tree_risk>0.</tree_risk>
          <tree_error>0.</tree_error>
          <splits>
            <_><var>4550</var>
              <quality>1.1831757545471191e+001</quality>
              <le>2.8715000000000000e+003</le></_></splits></_>
        <_>
          <depth>5</depth>
          <sample_count>20</sample_count>
          <value>0.</value>
          <norm_class_idx>0</norm_class_idx>
          <Tn>0</Tn>
          <complexity>0</complexity>
          <alpha>0.</alpha>
          <node_risk>6.9395711500974677e-001</node_risk>
          <tree_risk>0.</tree_risk>
          <tree_error>0.</tree_error>
          <splits>
            <_><var>8258</var>
              <quality>1.1775475502014160e+001</quality>
              <le>-1945.</le></_></splits></_>
        <_>
          <depth>6</depth>
          <sample_count>3</sample_count>
          <value>1.</value>
          <norm_class_idx>1</norm_class_idx>
          <Tn>0</Tn>
          <complexity>0</complexity>
          <alpha>0.</alpha>
          <node_risk>6.5302144249512672e-001</node_risk>
          <tree_risk>0.</tree_risk>
          <tree_error>0.</tree_error></_>
        <_>
          <depth>6</depth>
          <sample_count>17</sample_count>
          <value>0.</value>
          <norm_class_idx>0</norm_class_idx>
          <Tn>0</Tn>
          <complexity>0</complexity>
          <alpha>0.</alpha>
          <node_risk>0.</node_risk>
          <tree_risk>0.</tree_risk>
          <tree_error>0.</tree_error></_>
        <_>
          <depth>5</depth>
          <sample_count>2</sample_count>
          <value>1.</value>
          <norm_class_idx>1</norm_class_idx>
          <Tn>0</Tn>
          <complexity>0</complexity>
          <alpha>0.</alpha>
          <node_risk>0.</node_risk>
          <tree_risk>0.</tree_risk>
          <tree_error>0.</tree_error></_>
        <_>
          <depth>3</depth>
          <sample_count>55</sample_count>
          <value>0.</value>
          <norm_class_idx>0</norm_class_idx>
          <Tn>0</Tn>
          <complexity>0</complexity>
          <alpha>0.</alpha>
          <node_risk>7.6335282651072127e+000</node_risk>
          <tree_risk>0.</tree_risk>
          <tree_error>0.</tree_error>
          <splits>
            <_><var>3205</var>
              <quality>2.0798868179321289e+001</quality>
              <le>3.1535000000000000e+003</le></_></splits></_>
        <_>
          <depth>4</depth>
          <sample_count>48</sample_count>
          <value>0.</value>
          <norm_class_idx>0</norm_class_idx>
          <Tn>0</Tn>
          <complexity>0</complexity>
          <alpha>0.</alpha>
          <node_risk>5.2046783625730981e+000</node_risk>
          <tree_risk>0.</tree_risk>
          <tree_error>0.</tree_error>
          <splits>
            <_><var>8020</var>
              <quality>2.1345201492309570e+001</quality>
              <le>31910.</le></_></splits></_>
        <_>
          <depth>5</depth>
          <sample_count>9</sample_count>
          <value>1.</value>
          <norm_class_idx>1</norm_class_idx>
          <Tn>0</Tn>
          <complexity>0</complexity>
          <alpha>0.</alpha>
          <node_risk>6.5302144249512661e-001</node_risk>
          <tree_risk>0.</tree_risk>
          <tree_error>0.</tree_error>
          <splits>
            <_><var>8237</var>
              <quality>3.4288499355316162e+000</quality>
              <le>8.5877500000000000e+004</le></_></splits></_>
        <_>
          <depth>6</depth>
          <sample_count>8</sample_count>
          <value>1.</value>
          <norm_class_idx>1</norm_class_idx>
          <Tn>0</Tn>
          <complexity>0</complexity>
          <alpha>0.</alpha>
          <node_risk>0.</node_risk>
          <tree_risk>0.</tree_risk>
          <tree_error>0.</tree_error></_>
        <_>
          <depth>6</depth>
          <sample_count>1</sample_count>
          <value>0.</value>
          <norm_class_idx>0</norm_class_idx>
          <Tn>0</Tn>
          <complexity>0</complexity>
          <alpha>0.</alpha>
          <node_risk>0.</node_risk>
          <tree_risk>0.</tree_risk>
          <tree_error>0.</tree_error></_>
        <_>
          <depth>5</depth>
          <sample_count>39</sample_count>
          <value>0.</value>
          <norm_class_idx>0</norm_class_idx>
          <Tn>0</Tn>
          <complexity>0</complexity>
          <alpha>0.</alpha>
          <node_risk>2.4288499025341146e+000</node_risk>
          <tree_risk>0.</tree_risk>
          <tree_error>0.</tree_error>
          <splits>
            <_><var>5900</var>
              <quality>2.0121738433837891e+001</quality>
              <le>4.1555000000000000e+003</le></_></splits></_>
        <_>
          <depth>6</depth>
          <sample_count>2</sample_count>
          <value>1.</value>
          <norm_class_idx>1</norm_class_idx>
          <Tn>0</Tn>
          <complexity>0</complexity>
          <alpha>0.</alpha>
          <node_risk>0.</node_risk>
          <tree_risk>0.</tree_risk>
          <tree_error>0.</tree_error></_>
        <_>
          <depth>6</depth>
          <sample_count>37</sample_count>
          <value>0.</value>
          <norm_class_idx>0</norm_class_idx>
          <Tn>0</Tn>
          <complexity>0</complexity>
          <alpha>0.</alpha>
          <node_risk>1.7348927875243660e+000</node_risk>
          <tree_risk>0.</tree_risk>
          <tree_error>0.</tree_error>
          <splits>
            <_><var>2457</var>
              <quality>2.0648492813110352e+001</quality>
              <le>3.6655000000000000e+003</le></_></splits></_>
        <_>
          <depth>7</depth>
          <sample_count>35</sample_count>
          <value>0.</value>
          <norm_class_idx>0</norm_class_idx>
          <Tn>0</Tn>
          <complexity>0</complexity>
          <alpha>0.</alpha>
          <node_risk>1.0409356725146210e+000</node_risk>
          <tree_risk>0.</tree_risk>
          <tree_error>0.</tree_error>
          <splits>
            <_><var>6978</var>
              <quality>2.0231277465820312e+001</quality>
              <le>1.8145000000000000e+003</le></_></splits></_>
        <_>
          <depth>8</depth>
          <sample_count>30</sample_count>
          <value>0.</value>
          <norm_class_idx>0</norm_class_idx>
          <Tn>0</Tn>
          <complexity>0</complexity>
          <alpha>0.</alpha>
          <node_risk>3.4697855750487250e-001</node_risk>
          <tree_risk>0.</tree_risk>
          <tree_error>0.</tree_error>
          <splits>
            <_><var>1356</var>
              <quality>1.8647098541259766e+001</quality>
              <le>2.5115000000000000e+003</le></_></splits></_>
        <_>
          <depth>9</depth>
          <sample_count>23</sample_count>
          <value>0.</value>
          <norm_class_idx>0</norm_class_idx>
          <Tn>0</Tn>
          <complexity>0</complexity>
          <alpha>0.</alpha>
          <node_risk>0.</node_risk>
          <tree_risk>0.</tree_risk>
          <tree_error>0.</tree_error></_>
        <_>
          <depth>9</depth>
          <sample_count>7</sample_count>
          <value>0.</value>
          <norm_class_idx>0</norm_class_idx>
          <Tn>0</Tn>
          <complexity>0</complexity>
          <alpha>0.</alpha>
          <node_risk>3.4697855750487339e-001</node_risk>
          <tree_risk>0.</tree_risk>
          <tree_error>0.</tree_error>
          <splits>
            <_><var>2065</var>
              <quality>4.2651071548461914e+000</quality>
              <le>-1.0464500000000000e+004</le></_></splits></_>
        <_>
          <depth>10</depth>
          <sample_count>1</sample_count>
          <value>1.</value>
          <norm_class_idx>1</norm_class_idx>
          <Tn>0</Tn>
          <complexity>0</complexity>
          <alpha>0.</alpha>
          <node_risk>0.</node_risk>
          <tree_risk>0.</tree_risk>
          <tree_error>0.</tree_error></_>
        <_>
          <depth>10</depth>
          <sample_count>6</sample_count>
          <value>0.</value>
          <norm_class_idx>0</norm_class_idx>
          <Tn>0</Tn>
          <complexity>0</complexity>
          <alpha>0.</alpha>
          <node_risk>0.</node_risk>
          <tree_risk>0.</tree_risk>
          <tree_error>0.</tree_error></_>
        <_>
          <depth>8</depth>
          <sample_count>5</sample_count>
          <value>0.</value>
          <norm_class_idx>0</norm_class_idx>
          <Tn>0</Tn>
          <complexity>0</complexity>
          <alpha>0.</alpha>
          <node_risk>6.9395711500974677e-001</node_risk>
          <tree_risk>0.</tree_risk>
          <tree_error>0.</tree_error></_>
        <_>
          <depth>7</depth>
          <sample_count>2</sample_count>
          <value>1.</value>
          <norm_class_idx>1</norm_class_idx>
          <Tn>0</Tn>
          <complexity>0</complexity>
          <alpha>0.</alpha>
          <node_risk>0.</node_risk>
          <tree_risk>0.</tree_risk>
          <tree_error>0.</tree_error></_>
        <_>
          <depth>4</depth>
          <sample_count>7</sample_count>
          <value>1.</value>
          <norm_class_idx>1</norm_class_idx>
          <Tn>0</Tn>
          <complexity>0</complexity>
          <alpha>0.</alpha>
          <node_risk>0.</node_risk>
          <tree_risk>0.</tree_risk>
          <tree_error>0.</tree_error></_>
        <_>
          <depth>2</depth>
          <sample_count>183</sample_count>
          <value>1.</value>
          <norm_class_idx>1</norm_class_idx>
          <Tn>0</Tn>
          <complexity>0</complexity>
          <alpha>0.</alpha>
          <node_risk>6.5302144249512608e+000</node_risk>
          <tree_risk>0.</tree_risk>
          <tree_error>0.</tree_error>
          <splits>
            <_><var>8044</var>
              <quality>5.8611297607421875e+001</quality>
              <le>-3.2350000000000000e+002</le></_></splits></_>
        <_>
          <depth>3</depth>
          <sample_count>18</sample_count>
          <value>0.</value>
          <norm_class_idx>0</norm_class_idx>
          <Tn>0</Tn>
          <complexity>0</complexity>
          <alpha>0.</alpha>
          <node_risk>3.8167641325536064e+000</node_risk>
          <tree_risk>0.</tree_risk>
          <tree_error>0.</tree_error>
          <splits>
            <_><var>3641</var>
              <quality>6.6921906471252441e+000</quality>
              <le>1.1645000000000000e+003</le></_></splits></_>
        <_>
          <depth>4</depth>
          <sample_count>10</sample_count>
          <value>0.</value>
          <norm_class_idx>0</norm_class_idx>
          <Tn>0</Tn>
          <complexity>0</complexity>
          <alpha>0.</alpha>
          <node_risk>1.0409356725146202e+000</node_risk>
          <tree_risk>0.</tree_risk>
          <tree_error>0.</tree_error>
          <splits>
            <_><var>8440</var>
              <quality>4.9670877456665039e+000</quality>
              <le>2771.</le></_></splits></_>
        <_>
          <depth>5</depth>
          <sample_count>2</sample_count>
          <value>1.</value>
          <norm_class_idx>1</norm_class_idx>
          <Tn>0</Tn>
          <complexity>0</complexity>
          <alpha>0.</alpha>
          <node_risk>0.</node_risk>
          <tree_risk>0.</tree_risk>
          <tree_error>0.</tree_error></_>
        <_>
          <depth>5</depth>
          <sample_count>8</sample_count>
          <value>0.</value>
          <norm_class_idx>0</norm_class_idx>
          <Tn>0</Tn>
          <complexity>0</complexity>
          <alpha>0.</alpha>
          <node_risk>3.4697855750487339e-001</node_risk>
          <tree_risk>0.</tree_risk>
          <tree_error>0.</tree_error>
          <splits>
            <_><var>3308</var>
              <quality>4.9181284904479980e+000</quality>
              <le>2.9075000000000000e+003</le></_></splits></_>
        <_>
          <depth>6</depth>
          <sample_count>7</sample_count>
          <value>0.</value>
          <norm_class_idx>0</norm_class_idx>
          <Tn>0</Tn>
          <complexity>0</complexity>
          <alpha>0.</alpha>
          <node_risk>0.</node_risk>
          <tree_risk>0.</tree_risk>
          <tree_error>0.</tree_error></_>
        <_>
          <depth>6</depth>
          <sample_count>1</sample_count>
          <value>1.</value>
          <norm_class_idx>1</norm_class_idx>
          <Tn>0</Tn>
          <complexity>0</complexity>
          <alpha>0.</alpha>
          <node_risk>0.</node_risk>
          <tree_risk>0.</tree_risk>
          <tree_error>0.</tree_error></_>
        <_>
          <depth>4</depth>
          <sample_count>8</sample_count>
          <value>1.</value>
          <norm_class_idx>1</norm_class_idx>
          <Tn>0</Tn>
          <complexity>0</complexity>
          <alpha>0.</alpha>
          <node_risk>0.</node_risk>
          <tree_risk>0.</tree_risk>
          <tree_error>0.</tree_error></_>
        <_>
          <depth>3</depth>
          <sample_count>165</sample_count>
          <value>1.</value>
          <norm_class_idx>1</norm_class_idx>
          <Tn>0</Tn>
          <complexity>0</complexity>
          <alpha>0.</alpha>
          <node_risk>1.9590643274853790e+000</node_risk>
          <tree_risk>0.</tree_risk>
          <tree_error>0.</tree_error>
          <splits>
            <_><var>513</var>
              <quality>5.5616817474365234e+001</quality>
              <le>3658.</le></_></splits></_>
        <_>
          <depth>4</depth>
          <sample_count>1</sample_count>
          <value>0.</value>
          <norm_class_idx>0</norm_class_idx>
          <Tn>0</Tn>
          <complexity>0</complexity>
          <alpha>0.</alpha>
          <node_risk>0.</node_risk>
          <tree_risk>0.</tree_risk>
          <tree_error>0.</tree_error></_>
        <_>
          <depth>4</depth>
          <sample_count>164</sample_count>
          <value>1.</value>
          <norm_class_idx>1</norm_class_idx>
          <Tn>0</Tn>
          <complexity>0</complexity>
          <alpha>0.</alpha>
          <node_risk>1.3060428849902550e+000</node_risk>
          <tree_risk>0.</tree_risk>
          <tree_error>0.</tree_error>
          <splits>
            <_><var>7883</var>
              <quality>5.5570426940917969e+001</quality>
              <le>-1.0655000000000000e+003</le></_></splits></_>
        <_>
          <depth>5</depth>
          <sample_count>13</sample_count>
          <value>1.</value>
          <norm_class_idx>1</norm_class_idx>
          <Tn>0</Tn>
          <complexity>0</complexity>
          <alpha>0.</alpha>
          <node_risk>1.3060428849902537e+000</node_risk>
          <tree_risk>0.</tree_risk>
          <tree_error>0.</tree_error>
          <splits>
            <_><var>562</var>
              <quality>4.5745153427124023e+000</quality>
              <le>3.2500000000000000e+001</le></_></splits></_>
        <_>
          <depth>6</depth>
          <sample_count>3</sample_count>
          <value>0.</value>
          <norm_class_idx>0</norm_class_idx>
          <Tn>0</Tn>
          <complexity>0</complexity>
          <alpha>0.</alpha>
          <node_risk>3.4697855750487339e-001</node_risk>
          <tree_risk>0.</tree_risk>
          <tree_error>0.</tree_error></_>
        <_>
          <depth>6</depth>
          <sample_count>10</sample_count>
          <value>1.</value>
          <norm_class_idx>1</norm_class_idx>
          <Tn>0</Tn>
          <complexity>0</complexity>
          <alpha>0.</alpha>
          <node_risk>0.</node_risk>
          <tree_risk>0.</tree_risk>
          <tree_error>0.</tree_error></_>
        <_>
          <depth>5</depth>
          <sample_count>151</sample_count>
          <value>1.</value>
          <norm_class_idx>1</norm_class_idx>
          <Tn>0</Tn>
          <complexity>0</complexity>
          <alpha>0.</alpha>
          <node_risk>0.</node_risk>
          <tree_risk>0.</tree_risk>
          <tree_error>0.</tree_error></_>
        <_>
          <depth>1</depth>
          <sample_count>173</sample_count>
          <value>0.</value>
          <norm_class_idx>0</norm_class_idx>
          <Tn>0</Tn>
          <complexity>0</complexity>
          <alpha>0.</alpha>
          <node_risk>2.3247563352826518e+001</node_risk>
          <tree_risk>0.</tree_risk>
          <tree_error>0.</tree_error>
          <splits>
            <_><var>5196</var>
              <quality>5.9643753051757812e+001</quality>
              <le>-4480.</le></_></splits></_>
        <_>
          <depth>2</depth>
          <sample_count>5</sample_count>
          <value>1.</value>
          <norm_class_idx>1</norm_class_idx>
          <Tn>0</Tn>
          <complexity>0</complexity>
          <alpha>0.</alpha>
          <node_risk>0.</node_risk>
          <tree_risk>0.</tree_risk>
          <tree_error>0.</tree_error></_>
        <_>
          <depth>2</depth>
          <sample_count>168</sample_count>
          <value>0.</value>
          <norm_class_idx>0</norm_class_idx>
          <Tn>0</Tn>
          <complexity>0</complexity>
          <alpha>0.</alpha>
          <node_risk>2.1512670565302145e+001</node_risk>
          <tree_risk>0.</tree_risk>
          <tree_error>0.</tree_error>
          <splits>
            <_><var>8584</var>
              <quality>6.3883258819580078e+001</quality>
              <le>7686.</le></_></splits></_>
        <_>
          <depth>3</depth>
          <sample_count>154</sample_count>
          <value>0.</value>
          <norm_class_idx>0</norm_class_idx>
          <Tn>0</Tn>
          <complexity>0</complexity>
          <alpha>0.</alpha>
          <node_risk>1.6654970760233923e+001</node_risk>
          <tree_risk>0.</tree_risk>
          <tree_error>0.</tree_error>
          <splits>
            <_><var>229</var>
              <quality>6.2211009979248047e+001</quality>
              <le>404.</le></_></splits></_>
        <_>
          <depth>4</depth>
          <sample_count>99</sample_count>
          <value>0.</value>
          <norm_class_idx>0</norm_class_idx>
          <Tn>0</Tn>
          <complexity>0</complexity>
          <alpha>0.</alpha>
          <node_risk>1.5614035087719301e+001</node_risk>
          <tree_risk>0.</tree_risk>
          <tree_error>0.</tree_error>
          <splits>
            <_><var>5405</var>
              <quality>3.3920532226562500e+001</quality>
              <le>975.</le></_></splits></_>
        <_>
          <depth>5</depth>
          <sample_count>46</sample_count>
          <value>1.</value>
          <norm_class_idx>1</norm_class_idx>
          <Tn>0</Tn>
          <complexity>0</complexity>
          <alpha>0.</alpha>
          <node_risk>8.4892787524366451e+000</node_risk>
          <tree_risk>0.</tree_risk>
          <tree_error>0.</tree_error>
          <splits>
            <_><var>1220</var>
              <quality>1.2302973747253418e+001</quality>
              <le>-754.</le></_></splits></_>
        <_>
          <depth>6</depth>
          <sample_count>13</sample_count>
          <value>1.</value>
          <norm_class_idx>1</norm_class_idx>
          <Tn>0</Tn>
          <complexity>0</complexity>
          <alpha>0.</alpha>
          <node_risk>0.</node_risk>
          <tree_risk>0.</tree_risk>
          <tree_error>0.</tree_error></_>
        <_>
          <depth>6</depth>
          <sample_count>33</sample_count>
          <value>0.</value>
          <norm_class_idx>0</norm_class_idx>
          <Tn>0</Tn>
          <complexity>0</complexity>
          <alpha>0.</alpha>
          <node_risk>6.9395711500974677e+000</node_risk>
          <tree_risk>0.</tree_risk>
          <tree_error>0.</tree_error>
          <splits>
            <_><var>3792</var>
              <quality>1.0502716064453125e+001</quality>
              <le>-759.</le></_></splits></_>
        <_>
          <depth>7</depth>
          <sample_count>10</sample_count>
          <value>1.</value>
          <norm_class_idx>1</norm_class_idx>
          <Tn>0</Tn>
          <complexity>0</complexity>
          <alpha>0.</alpha>
          <node_risk>0.</node_risk>
          <tree_risk>0.</tree_risk>
          <tree_error>0.</tree_error></_>
        <_>
          <depth>7</depth>
          <sample_count>23</sample_count>
          <value>0.</value>
          <norm_class_idx>0</norm_class_idx>
          <Tn>0</Tn>
          <complexity>0</complexity>
          <alpha>0.</alpha>
          <node_risk>3.4697855750487339e+000</node_risk>
          <tree_risk>0.</tree_risk>
          <tree_error>0.</tree_error>
          <splits>
            <_><var>5976</var>
              <quality>1.0214365959167480e+001</quality>
              <le>1964.</le></_></splits></_>
        <_>
          <depth>8</depth>
          <sample_count>10</sample_count>
          <value>1.</value>
          <norm_class_idx>1</norm_class_idx>
          <Tn>0</Tn>
          <complexity>0</complexity>
          <alpha>0.</alpha>
          <node_risk>6.5302144249512661e-001</node_risk>
          <tree_risk>0.</tree_risk>
          <tree_error>0.</tree_error>
          <splits>
            <_><var>885</var>
              <quality>3.7758283615112305e+000</quality>
              <le>-6.1950000000000000e+002</le></_></splits></_>
        <_>
          <depth>9</depth>
          <sample_count>1</sample_count>
          <value>0.</value>
          <norm_class_idx>0</norm_class_idx>
          <Tn>0</Tn>
          <complexity>0</complexity>
          <alpha>0.</alpha>
          <node_risk>0.</node_risk>
          <tree_risk>0.</tree_risk>
          <tree_error>0.</tree_error></_>
        <_>
          <depth>9</depth>
          <sample_count>9</sample_count>
          <value>1.</value>
          <norm_class_idx>1</norm_class_idx>
          <Tn>0</Tn>
          <complexity>0</complexity>
          <alpha>0.</alpha>
          <node_risk>0.</node_risk>
          <tree_risk>0.</tree_risk>
          <tree_error>0.</tree_error></_>
        <_>
          <depth>8</depth>
          <sample_count>13</sample_count>
          <value>0.</value>
          <norm_class_idx>0</norm_class_idx>
          <Tn>0</Tn>
          <complexity>0</complexity>
          <alpha>0.</alpha>
          <node_risk>3.4697855750487250e-001</node_risk>
          <tree_risk>0.</tree_risk>
          <tree_error>0.</tree_error>
          <splits>
            <_><var>6738</var>
              <quality>8.1832361221313477e+000</quality>
              <le>-1866.</le></_></splits></_>
        <_>
          <depth>9</depth>
          <sample_count>1</sample_count>
          <value>1.</value>
          <norm_class_idx>1</norm_class_idx>
          <Tn>0</Tn>
          <complexity>0</complexity>
          <alpha>0.</alpha>
          <node_risk>0.</node_risk>
          <tree_risk>0.</tree_risk>
          <tree_error>0.</tree_error></_>
        <_>
          <depth>9</depth>
          <sample_count>12</sample_count>
          <value>0.</value>
          <norm_class_idx>0</norm_class_idx>
          <Tn>0</Tn>
          <complexity>0</complexity>
          <alpha>0.</alpha>
          <node_risk>0.</node_risk>
          <tree_risk>0.</tree_risk>
          <tree_error>0.</tree_error></_>
        <_>
          <depth>5</depth>
          <sample_count>53</sample_count>
          <value>0.</value>
          <norm_class_idx>0</norm_class_idx>
          <Tn>0</Tn>
          <complexity>0</complexity>
          <alpha>0.</alpha>
          <node_risk>4.1637426900584806e+000</node_risk>
          <tree_risk>0.</tree_risk>
          <tree_error>0.</tree_error>
          <splits>
            <_><var>4234</var>
              <quality>2.5907474517822266e+001</quality>
              <le>-3218.</le></_></splits></_>
        <_>
          <depth>6</depth>
          <sample_count>4</sample_count>
          <value>1.</value>
          <norm_class_idx>1</norm_class_idx>
          <Tn>0</Tn>
          <complexity>0</complexity>
          <alpha>0.</alpha>
          <node_risk>0.</node_risk>
          <tree_risk>0.</tree_risk>
          <tree_error>0.</tree_error></_>
        <_>
          <depth>6</depth>
          <sample_count>49</sample_count>
          <value>0.</value>
          <norm_class_idx>0</norm_class_idx>
          <Tn>0</Tn>
          <complexity>0</complexity>
          <alpha>0.</alpha>
          <node_risk>2.7758284600389871e+000</node_risk>
          <tree_risk>0.</tree_risk>
          <tree_error>0.</tree_error>
          <splits>
            <_><var>1724</var>
              <quality>2.5686368942260742e+001</quality>
              <le>-1718.</le></_></splits></_>
        <_>
          <depth>7</depth>
          <sample_count>2</sample_count>
          <value>1.</value>
          <norm_class_idx>1</norm_class_idx>
          <Tn>0</Tn>
          <complexity>0</complexity>
          <alpha>0.</alpha>
          <node_risk>0.</node_risk>
          <tree_risk>0.</tree_risk>
          <tree_error>0.</tree_error></_>
        <_>
          <depth>7</depth>
          <sample_count>47</sample_count>
          <value>0.</value>
          <norm_class_idx>0</norm_class_idx>
          <Tn>0</Tn>
          <complexity>0</complexity>
          <alpha>0.</alpha>
          <node_risk>2.0818713450292385e+000</node_risk>
          <tree_risk>0.</tree_risk>
          <tree_error>0.</tree_error>
          <splits>
            <_><var>6862</var>
              <quality>2.6851791381835938e+001</quality>
              <le>-3951.</le></_></splits></_>
        <_>
          <depth>8</depth>
          <sample_count>3</sample_count>
          <value>1.</value>
          <norm_class_idx>1</norm_class_idx>
          <Tn>0</Tn>
          <complexity>0</complexity>
          <alpha>0.</alpha>
          <node_risk>0.</node_risk>
          <tree_risk>0.</tree_risk>
          <tree_error>0.</tree_error></_>
        <_>
          <depth>8</depth>
          <sample_count>44</sample_count>
          <value>0.</value>
          <norm_class_idx>0</norm_class_idx>
          <Tn>0</Tn>
          <complexity>0</complexity>
          <alpha>0.</alpha>
          <node_risk>1.0409356725146210e+000</node_risk>
          <tree_risk>0.</tree_risk>
          <tree_error>0.</tree_error>
          <splits>
            <_><var>7493</var>
              <quality>2.7129735946655273e+001</quality>
              <le>4.5055000000000000e+003</le></_></splits></_>
        <_>
          <depth>9</depth>
          <sample_count>42</sample_count>
          <value>0.</value>
          <norm_class_idx>0</norm_class_idx>
          <Tn>0</Tn>
          <complexity>0</complexity>
          <alpha>0.</alpha>
          <node_risk>3.4697855750487250e-001</node_risk>
          <tree_risk>0.</tree_risk>
          <tree_error>0.</tree_error>
          <splits>
            <_><var>2602</var>
              <quality>2.7120857238769531e+001</quality>
              <le>-664.</le></_></splits></_>
        <_>
          <depth>10</depth>
          <sample_count>1</sample_count>
          <value>1.</value>
          <norm_class_idx>1</norm_class_idx>
          <Tn>0</Tn>
          <complexity>0</complexity>
          <alpha>0.</alpha>
          <node_risk>0.</node_risk>
          <tree_risk>0.</tree_risk>
          <tree_error>0.</tree_error></_>
        <_>
          <depth>10</depth>
          <sample_count>41</sample_count>
          <value>0.</value>
          <norm_class_idx>0</norm_class_idx>
          <Tn>0</Tn>
          <complexity>0</complexity>
          <alpha>0.</alpha>
          <node_risk>0.</node_risk>
          <tree_risk>0.</tree_risk>
          <tree_error>0.</tree_error></_>
        <_>
          <depth>9</depth>
          <sample_count>2</sample_count>
          <value>1.</value>
          <norm_class_idx>1</norm_class_idx>
          <Tn>0</Tn>
          <complexity>0</complexity>
          <alpha>0.</alpha>
          <node_risk>0.</node_risk>
          <tree_risk>0.</tree_risk>
          <tree_error>0.</tree_error></_>
        <_>
          <depth>4</depth>
          <sample_count>55</sample_count>
          <value>0.</value>
          <norm_class_idx>0</norm_class_idx>
          <Tn>0</Tn>
          <complexity>0</complexity>
          <alpha>0.</alpha>
          <node_risk>1.0409356725146210e+000</node_risk>
          <tree_risk>0.</tree_risk>
          <tree_error>0.</tree_error>
          <splits>
            <_><var>8065</var>
              <quality>3.3839534759521484e+001</quality>
              <le>22118.</le></_></splits></_>
        <_>
          <depth>5</depth>
          <sample_count>5</sample_count>
          <value>0.</value>
          <norm_class_idx>0</norm_class_idx>
          <Tn>0</Tn>
          <complexity>0</complexity>
          <alpha>0.</alpha>
          <node_risk>1.0409356725146199e+000</node_risk>
          <tree_risk>0.</tree_risk>
          <tree_error>0.</tree_error></_>
        <_>
          <depth>5</depth>
          <sample_count>50</sample_count>
          <value>0.</value>
          <norm_class_idx>0</norm_class_idx>
          <Tn>0</Tn>
          <complexity>0</complexity>
          <alpha>0.</alpha>
          <node_risk>0.</node_risk>
          <tree_risk>0.</tree_risk>
          <tree_error>0.</tree_error></_>
        <_>
          <depth>3</depth>
          <sample_count>14</sample_count>
          <value>1.</value>
          <norm_class_idx>1</norm_class_idx>
          <Tn>0</Tn>
          <complexity>0</complexity>
          <alpha>0.</alpha>
          <node_risk>0.</node_risk>
          <tree_risk>0.</tree_risk>
          <tree_error>0.</tree_error></_></nodes></_>
    <_>
      <best_tree_idx>-1</best_tree_idx>
      <nodes>
        <_>
          <depth>0</depth>
          <sample_count>513</sample_count>
          <value>0.</value>
          <norm_class_idx>0</norm_class_idx>
          <Tn>0</Tn>
          <complexity>0</complexity>
          <alpha>0.</alpha>
          <node_risk>1.1771929824561406e+002</node_risk>
          <tree_risk>0.</tree_risk>
          <tree_error>0.</tree_error>
          <splits>
            <_><var>6449</var>
              <quality>1.3681939697265625e+002</quality>
              <le>-5240.</le></_></splits></_>
        <_>
          <depth>1</depth>
          <sample_count>71</sample_count>
          <value>0.</value>
          <norm_class_idx>0</norm_class_idx>
          <Tn>0</Tn>
          <complexity>0</complexity>
          <alpha>0.</alpha>
          <node_risk>3.2105263157894726e+000</node_risk>
          <tree_risk>0.</tree_risk>
          <tree_error>0.</tree_error>
          <splits>
            <_><var>3492</var>
              <quality>4.0613101959228516e+001</quality>
              <le>-4890.</le></_></splits></_>
        <_>
          <depth>2</depth>
          <sample_count>10</sample_count>
          <value>1.</value>
          <norm_class_idx>1</norm_class_idx>
          <Tn>0</Tn>
          <complexity>0</complexity>
          <alpha>0.</alpha>
          <node_risk>1.2865497076023393e+000</node_risk>
          <tree_risk>0.</tree_risk>
          <tree_error>0.</tree_error>
          <splits>
            <_><var>160</var>
              <quality>4.1403508186340332e+000</quality>
              <le>-1.9845000000000000e+003</le></_></splits></_>
        <_>
          <depth>3</depth>
          <sample_count>2</sample_count>
          <value>0.</value>
          <norm_class_idx>0</norm_class_idx>
          <Tn>0</Tn>
          <complexity>0</complexity>
          <alpha>0.</alpha>
          <node_risk>0.</node_risk>
          <tree_risk>0.</tree_risk>
          <tree_error>0.</tree_error></_>
        <_>
          <depth>3</depth>
          <sample_count>8</sample_count>
          <value>1.</value>
          <norm_class_idx>1</norm_class_idx>
          <Tn>0</Tn>
          <complexity>0</complexity>
          <alpha>0.</alpha>
          <node_risk>0.</node_risk>
          <tree_risk>0.</tree_risk>
          <tree_error>0.</tree_error></_>
        <_>
          <depth>2</depth>
          <sample_count>61</sample_count>
          <value>0.</value>
          <norm_class_idx>0</norm_class_idx>
          <Tn>0</Tn>
          <complexity>0</complexity>
          <alpha>0.</alpha>
          <node_risk>3.5672514619883344e-001</node_risk>
          <tree_risk>0.</tree_risk>
          <tree_error>0.</tree_error>
          <splits>
            <_><var>2347</var>
              <quality>3.8953216552734375e+001</quality>
              <le>6695.</le></_></splits></_>
        <_>
          <depth>3</depth>
          <sample_count>60</sample_count>
          <value>0.</value>
          <norm_class_idx>0</norm_class_idx>
          <Tn>0</Tn>
          <complexity>0</complexity>
          <alpha>0.</alpha>
          <node_risk>0.</node_risk>
          <tree_risk>0.</tree_risk>
          <tree_error>0.</tree_error></_>
        <_>
          <depth>3</depth>
          <sample_count>1</sample_count>
          <value>1.</value>
          <norm_class_idx>1</norm_class_idx>
          <Tn>0</Tn>
          <complexity>0</complexity>
          <alpha>0.</alpha>
          <node_risk>0.</node_risk>
          <tree_risk>0.</tree_risk>
          <tree_error>0.</tree_error></_>
        <_>
          <depth>1</depth>
          <sample_count>442</sample_count>
          <value>1.</value>
          <norm_class_idx>1</norm_class_idx>
          <Tn>0</Tn>
          <complexity>0</complexity>
          <alpha>0.</alpha>
          <node_risk>7.7836257309941544e+001</node_risk>
          <tree_risk>0.</tree_risk>
          <tree_error>0.</tree_error>
          <splits>
            <_><var>8069</var>
              <quality>1.3281166076660156e+002</quality>
              <le>2246.</le></_></splits></_>
        <_>
          <depth>2</depth>
          <sample_count>304</sample_count>
          <value>1.</value>
          <norm_class_idx>1</norm_class_idx>
          <Tn>0</Tn>
          <complexity>0</complexity>
          <alpha>0.</alpha>
          <node_risk>1.9941520467836256e+001</node_risk>
          <tree_risk>0.</tree_risk>
          <tree_error>0.</tree_error>
          <splits>
            <_><var>4235</var>
              <quality>8.7693428039550781e+001</quality>
              <le>-2667.</le></_></splits></_>
        <_>
          <depth>3</depth>
          <sample_count>124</sample_count>
          <value>1.</value>
          <norm_class_idx>1</norm_class_idx>
          <Tn>0</Tn>
          <complexity>0</complexity>
          <alpha>0.</alpha>
          <node_risk>6.4327485380116656e-001</node_risk>
          <tree_risk>0.</tree_risk>
          <tree_error>0.</tree_error>
          <splits>
            <_><var>1199</var>
              <quality>4.3574932098388672e+001</quality>
              <le>-16.</le></_></splits></_>
        <_>
          <depth>4</depth>
          <sample_count>118</sample_count>
          <value>1.</value>
          <norm_class_idx>1</norm_class_idx>
          <Tn>0</Tn>
          <complexity>0</complexity>
          <alpha>0.</alpha>
          <node_risk>0.</node_risk>
          <tree_risk>0.</tree_risk>
          <tree_error>0.</tree_error></_>
        <_>
          <depth>4</depth>
          <sample_count>6</sample_count>
          <value>1.</value>
          <norm_class_idx>1</norm_class_idx>
          <Tn>0</Tn>
          <complexity>0</complexity>
          <alpha>0.</alpha>
          <node_risk>6.4327485380116967e-001</node_risk>
          <tree_risk>0.</tree_risk>
          <tree_error>0.</tree_error>
          <splits>
            <_><var>6614</var>
              <quality>2.4269006252288818e+000</quality>
              <le>-1.2750000000000000e+002</le></_></splits></_>
        <_>
          <depth>5</depth>
          <sample_count>5</sample_count>
          <value>1.</value>
          <norm_class_idx>1</norm_class_idx>
          <Tn>0</Tn>
          <complexity>0</complexity>
          <alpha>0.</alpha>
          <node_risk>0.</node_risk>
          <tree_risk>0.</tree_risk>
          <tree_error>0.</tree_error></_>
        <_>
          <depth>5</depth>
          <sample_count>1</sample_count>
          <value>0.</value>
          <norm_class_idx>0</norm_class_idx>
          <Tn>0</Tn>
          <complexity>0</complexity>
          <alpha>0.</alpha>
          <node_risk>0.</node_risk>
          <tree_risk>0.</tree_risk>
          <tree_error>0.</tree_error></_>
        <_>
          <depth>3</depth>
          <sample_count>180</sample_count>
          <value>1.</value>
          <norm_class_idx>1</norm_class_idx>
          <Tn>0</Tn>
          <complexity>0</complexity>
          <alpha>0.</alpha>
          <node_risk>1.9298245614035089e+001</node_risk>
          <tree_risk>0.</tree_risk>
          <tree_error>0.</tree_error>
          <splits>
            <_><var>3961</var>
              <quality>4.7322406768798828e+001</quality>
              <le>6203.</le></_></splits></_>
        <_>
          <depth>4</depth>
          <sample_count>176</sample_count>
          <value>1.</value>
          <norm_class_idx>1</norm_class_idx>
          <Tn>0</Tn>
          <complexity>0</complexity>
          <alpha>0.</alpha>
          <node_risk>1.6725146198830409e+001</node_risk>
          <tree_risk>0.</tree_risk>
          <tree_error>0.</tree_error>
          <splits>
            <_><var>5110</var>
              <quality>4.6654430389404297e+001</quality>
              <le>-3129.</le></_></splits></_>
        <_>
          <depth>5</depth>
          <sample_count>38</sample_count>
          <value>1.</value>
          <norm_class_idx>1</norm_class_idx>
          <Tn>0</Tn>
          <complexity>0</complexity>
          <alpha>0.</alpha>
          <node_risk>0.</node_risk>
          <tree_risk>0.</tree_risk>
          <tree_error>0.</tree_error></_>
        <_>
          <depth>5</depth>
          <sample_count>138</sample_count>
          <value>1.</value>
          <norm_class_idx>1</norm_class_idx>
          <Tn>0</Tn>
          <complexity>0</complexity>
          <alpha>0.</alpha>
          <node_risk>1.6725146198830409e+001</node_risk>
          <tree_risk>0.</tree_risk>
          <tree_error>0.</tree_error>
          <splits>
            <_><var>4278</var>
              <quality>3.9507019042968750e+001</quality>
              <le>6294.</le></_></splits></_>
        <_>
          <depth>6</depth>
          <sample_count>129</sample_count>
          <value>1.</value>
          <norm_class_idx>1</norm_class_idx>
          <Tn>0</Tn>
          <complexity>0</complexity>
          <alpha>0.</alpha>
          <node_risk>1.0935672514619888e+001</node_risk>
          <tree_risk>0.</tree_risk>
          <tree_error>0.</tree_error>
          <splits>
            <_><var>4667</var>
              <quality>3.6453506469726563e+001</quality>
              <le>-2582.</le></_></splits></_>
        <_>
          <depth>7</depth>
          <sample_count>5</sample_count>
          <value>0.</value>
          <norm_class_idx>0</norm_class_idx>
          <Tn>0</Tn>
          <complexity>0</complexity>
          <alpha>0.</alpha>
          <node_risk>3.5672514619883033e-001</node_risk>
          <tree_risk>0.</tree_risk>
          <tree_error>0.</tree_error></_>
        <_>
          <depth>7</depth>
          <sample_count>124</sample_count>
          <value>1.</value>
          <norm_class_idx>1</norm_class_idx>
          <Tn>0</Tn>
          <complexity>0</complexity>
          <alpha>0.</alpha>
          <node_risk>8.3625730994152079e+000</node_risk>
          <tree_risk>0.</tree_risk>
          <tree_error>0.</tree_error>
          <splits>
            <_><var>5878</var>
              <quality>3.5098972320556641e+001</quality>
              <le>-1.2985000000000000e+003</le></_></splits></_>
        <_>
          <depth>8</depth>
          <sample_count>33</sample_count>
          <value>1.</value>
          <norm_class_idx>1</norm_class_idx>
          <Tn>0</Tn>
          <complexity>0</complexity>
          <alpha>0.</alpha>
          <node_risk>0.</node_risk>
          <tree_risk>0.</tree_risk>
          <tree_error>0.</tree_error></_>
        <_>
          <depth>8</depth>
          <sample_count>91</sample_count>
          <value>1.</value>
          <norm_class_idx>1</norm_class_idx>
          <Tn>0</Tn>
          <complexity>0</complexity>
          <alpha>0.</alpha>
          <node_risk>8.3625730994152079e+000</node_risk>
          <tree_risk>0.</tree_risk>
          <tree_error>0.</tree_error>
          <splits>
            <_><var>3474</var>
              <quality>2.6368892669677734e+001</quality>
              <le>-5.3815000000000000e+003</le></_></splits></_>
        <_>
          <depth>9</depth>
          <sample_count>7</sample_count>
          <value>0.</value>
          <norm_class_idx>0</norm_class_idx>
          <Tn>0</Tn>
          <complexity>0</complexity>
          <alpha>0.</alpha>
          <node_risk>7.1345029239766111e-001</node_risk>
          <tree_risk>0.</tree_risk>
          <tree_error>0.</tree_error>
          <splits>
            <_><var>1119</var>
              <quality>3.9298245906829834e+000</quality>
              <le>-573.</le></_></splits></_>
        <_>
          <depth>10</depth>
          <sample_count>2</sample_count>
          <value>1.</value>
          <norm_class_idx>1</norm_class_idx>
          <Tn>0</Tn>
          <complexity>0</complexity>
          <alpha>0.</alpha>
          <node_risk>0.</node_risk>
          <tree_risk>0.</tree_risk>
          <tree_error>0.</tree_error></_>
        <_>
          <depth>10</depth>
          <sample_count>5</sample_count>
          <value>0.</value>
          <norm_class_idx>0</norm_class_idx>
          <Tn>0</Tn>
          <complexity>0</complexity>
          <alpha>0.</alpha>
          <node_risk>0.</node_risk>
          <tree_risk>0.</tree_risk>
          <tree_error>0.</tree_error></_>
        <_>
          <depth>9</depth>
          <sample_count>84</sample_count>
          <value>1.</value>
          <norm_class_idx>1</norm_class_idx>
          <Tn>0</Tn>
          <complexity>0</complexity>
          <alpha>0.</alpha>
          <node_risk>5.1461988304093609e+000</node_risk>
          <tree_risk>0.</tree_risk>
          <tree_error>0.</tree_error>
          <splits>
            <_><var>5167</var>
              <quality>2.4743644714355469e+001</quality>
              <le>1.0535000000000000e+003</le></_></splits></_>
        <_>
          <depth>10</depth>
          <sample_count>48</sample_count>
          <value>1.</value>
          <norm_class_idx>1</norm_class_idx>
          <Tn>0</Tn>
          <complexity>0</complexity>
          <alpha>0.</alpha>
          <node_risk>6.4327485380117011e-001</node_risk>
          <tree_risk>0.</tree_risk>
          <tree_error>0.</tree_error>
          <splits>
            <_><var>1380</var>
              <quality>1.6319362640380859e+001</quality>
              <le>16.</le></_></splits></_>
        <_>
          <depth>11</depth>
          <sample_count>37</sample_count>
          <value>1.</value>
          <norm_class_idx>1</norm_class_idx>
          <Tn>0</Tn>
          <complexity>0</complexity>
          <alpha>0.</alpha>
          <node_risk>0.</node_risk>
          <tree_risk>0.</tree_risk>
          <tree_error>0.</tree_error></_>
        <_>
          <depth>11</depth>
          <sample_count>11</sample_count>
          <value>1.</value>
          <norm_class_idx>1</norm_class_idx>
          <Tn>0</Tn>
          <complexity>0</complexity>
          <alpha>0.</alpha>
          <node_risk>6.4327485380117011e-001</node_risk>
          <tree_risk>0.</tree_risk>
          <tree_error>0.</tree_error>
          <splits>
            <_><var>2288</var>
              <quality>4.2105264663696289e+000</quality>
              <le>-2.1445000000000000e+003</le></_></splits></_>
        <_>
          <depth>12</depth>
          <sample_count>1</sample_count>
          <value>0.</value>
          <norm_class_idx>0</norm_class_idx>
          <Tn>0</Tn>
          <complexity>0</complexity>
          <alpha>0.</alpha>
          <node_risk>0.</node_risk>
          <tree_risk>0.</tree_risk>
          <tree_error>0.</tree_error></_>
        <_>
          <depth>12</depth>
          <sample_count>10</sample_count>
          <value>1.</value>
          <norm_class_idx>1</norm_class_idx>
          <Tn>0</Tn>
          <complexity>0</complexity>
          <alpha>0.</alpha>
          <node_risk>0.</node_risk>
          <tree_risk>0.</tree_risk>
          <tree_error>0.</tree_error></_>
        <_>
          <depth>10</depth>
          <sample_count>36</sample_count>
          <value>1.</value>
          <norm_class_idx>1</norm_class_idx>
          <Tn>0</Tn>
          <complexity>0</complexity>
          <alpha>0.</alpha>
          <node_risk>4.5029239766081872e+000</node_risk>
          <tree_risk>0.</tree_risk>
          <tree_error>0.</tree_error>
          <splits>
            <_><var>5454</var>
              <quality>1.1969127655029297e+001</quality>
              <le>-4838.</le></_></splits></_>
        <_>
          <depth>11</depth>
          <sample_count>9</sample_count>
          <value>0.</value>
          <norm_class_idx>0</norm_class_idx>
          <Tn>0</Tn>
          <complexity>0</complexity>
          <alpha>0.</alpha>
          <node_risk>1.0701754385964914e+000</node_risk>
          <tree_risk>0.</tree_risk>
          <tree_error>0.</tree_error>
          <splits>
            <_><var>1694</var>
              <quality>4.9298243522644043e+000</quality>
              <le>-5.5500000000000000e+001</le></_></splits></_>
        <_>
          <depth>12</depth>
          <sample_count>3</sample_count>
          <value>1.</value>
          <norm_class_idx>1</norm_class_idx>
          <Tn>0</Tn>
          <complexity>0</complexity>
          <alpha>0.</alpha>
          <node_risk>0.</node_risk>
          <tree_risk>0.</tree_risk>
          <tree_error>0.</tree_error></_>
        <_>
          <depth>12</depth>
          <sample_count>6</sample_count>
          <value>0.</value>
          <norm_class_idx>0</norm_class_idx>
          <Tn>0</Tn>
          <complexity>0</complexity>
          <alpha>0.</alpha>
          <node_risk>0.</node_risk>
          <tree_risk>0.</tree_risk>
          <tree_error>0.</tree_error></_>
        <_>
          <depth>11</depth>
          <sample_count>27</sample_count>
          <value>1.</value>
          <norm_class_idx>1</norm_class_idx>
          <Tn>0</Tn>
          <complexity>0</complexity>
          <alpha>0.</alpha>
          <node_risk>6.4327485380117011e-001</node_risk>
          <tree_risk>0.</tree_risk>
          <tree_error>0.</tree_error>
          <splits>
            <_><var>794</var>
              <quality>9.1145839691162109e+000</quality>
              <le>-2.2385000000000000e+003</le></_></splits></_>
        <_>
          <depth>12</depth>
          <sample_count>4</sample_count>
          <value>1.</value>
          <norm_class_idx>1</norm_class_idx>
          <Tn>0</Tn>
          <complexity>0</complexity>
          <alpha>0.</alpha>
          <node_risk>6.4327485380116967e-001</node_risk>
          <tree_risk>0.</tree_risk>
          <tree_error>0.</tree_error></_>
        <_>
          <depth>12</depth>
          <sample_count>23</sample_count>
          <value>1.</value>
          <norm_class_idx>1</norm_class_idx>
          <Tn>0</Tn>
          <complexity>0</complexity>
          <alpha>0.</alpha>
          <node_risk>0.</node_risk>
          <tree_risk>0.</tree_risk>
          <tree_error>0.</tree_error></_>
        <_>
          <depth>6</depth>
          <sample_count>9</sample_count>
          <value>0.</value>
          <norm_class_idx>0</norm_class_idx>
          <Tn>0</Tn>
          <complexity>0</complexity>
          <alpha>0.</alpha>
          <node_risk>0.</node_risk>
          <tree_risk>0.</tree_risk>
          <tree_error>0.</tree_error></_>
        <_>
          <depth>4</depth>
          <sample_count>4</sample_count>
          <value>0.</value>
          <norm_class_idx>0</norm_class_idx>
          <Tn>0</Tn>
          <complexity>0</complexity>
          <alpha>0.</alpha>
          <node_risk>0.</node_risk>
          <tree_risk>0.</tree_risk>
          <tree_error>0.</tree_error></_>
        <_>
          <depth>2</depth>
          <sample_count>138</sample_count>
          <value>0.</value>
          <norm_class_idx>0</norm_class_idx>
          <Tn>0</Tn>
          <complexity>0</complexity>
          <alpha>0.</alpha>
          <node_risk>1.7122807017543856e+001</node_risk>
          <tree_risk>0.</tree_risk>
          <tree_error>0.</tree_error>
          <splits>
            <_><var>1445</var>
              <quality>5.1127758026123047e+001</quality>
              <le>2.7695000000000000e+003</le></_></splits></_>
        <_>
          <depth>3</depth>
          <sample_count>86</sample_count>
          <value>0.</value>
          <norm_class_idx>0</norm_class_idx>
          <Tn>0</Tn>
          <complexity>0</complexity>
          <alpha>0.</alpha>
          <node_risk>6.7777777777777786e+000</node_risk>
          <tree_risk>0.</tree_risk>
          <tree_error>0.</tree_error>
          <splits>
            <_><var>4254</var>
              <quality>4.0926097869873047e+001</quality>
              <le>-5.1225000000000000e+003</le></_></splits></_>
        <_>
          <depth>4</depth>
          <sample_count>5</sample_count>
          <value>1.</value>
          <norm_class_idx>1</norm_class_idx>
          <Tn>0</Tn>
          <complexity>0</complexity>
          <alpha>0.</alpha>
          <node_risk>0.</node_risk>
          <tree_risk>0.</tree_risk>
          <tree_error>0.</tree_error></_>
        <_>
          <depth>4</depth>
          <sample_count>81</sample_count>
          <value>0.</value>
          <norm_class_idx>0</norm_class_idx>
          <Tn>0</Tn>
          <complexity>0</complexity>
          <alpha>0.</alpha>
          <node_risk>4.9941520467836256e+000</node_risk>
          <tree_risk>0.</tree_risk>
          <tree_error>0.</tree_error>
          <splits>
            <_><var>6285</var>
              <quality>4.1504432678222656e+001</quality>
              <le>-3132.</le></_></splits></_>
        <_>
          <depth>5</depth>
          <sample_count>4</sample_count>
          <value>1.</value>
          <norm_class_idx>1</norm_class_idx>
          <Tn>0</Tn>
          <complexity>0</complexity>
          <alpha>0.</alpha>
          <node_risk>0.</node_risk>
          <tree_risk>0.</tree_risk>
          <tree_error>0.</tree_error></_>
        <_>
          <depth>5</depth>
          <sample_count>77</sample_count>
          <value>0.</value>
          <norm_class_idx>0</norm_class_idx>
          <Tn>0</Tn>
          <complexity>0</complexity>
          <alpha>0.</alpha>
          <node_risk>3.5672514619883060e+000</node_risk>
          <tree_risk>0.</tree_risk>
          <tree_error>0.</tree_error>
          <splits>
            <_><var>1314</var>
              <quality>4.0744346618652344e+001</quality>
              <le>-3.9500000000000000e+001</le></_></splits></_>
        <_>
          <depth>6</depth>
          <sample_count>25</sample_count>
          <value>0.</value>
          <norm_class_idx>0</norm_class_idx>
          <Tn>0</Tn>
          <complexity>0</complexity>
          <alpha>0.</alpha>
          <node_risk>2.8538011695906427e+000</node_risk>
          <tree_risk>0.</tree_risk>
          <tree_error>0.</tree_error>
          <splits>
            <_><var>4452</var>
              <quality>9.9502258300781250e+000</quality>
              <le>-4870.</le></_></splits></_>
        <_>
          <depth>7</depth>
          <sample_count>6</sample_count>
          <value>1.</value>
          <norm_class_idx>1</norm_class_idx>
          <Tn>0</Tn>
          <complexity>0</complexity>
          <alpha>0.</alpha>
          <node_risk>1.2865497076023393e+000</node_risk>
          <tree_risk>0.</tree_risk>
          <tree_error>0.</tree_error>
          <splits>
            <_><var>6483</var>
              <quality>2.1548771858215332e+000</quality>
              <le>2870000.</le></_></splits></_>
        <_>
          <depth>8</depth>
          <sample_count>3</sample_count>
          <value>1.</value>
          <norm_class_idx>1</norm_class_idx>
          <Tn>0</Tn>
          <complexity>0</complexity>
          <alpha>0.</alpha>
          <node_risk>0.</node_risk>
          <tree_risk>0.</tree_risk>
          <tree_error>0.</tree_error></_>
        <_>
          <depth>8</depth>
          <sample_count>3</sample_count>
          <value>0.</value>
          <norm_class_idx>0</norm_class_idx>
          <Tn>0</Tn>
          <complexity>0</complexity>
          <alpha>0.</alpha>
          <node_risk>3.5672514619883033e-001</node_risk>
          <tree_risk>0.</tree_risk>
          <tree_error>0.</tree_error></_>
        <_>
          <depth>7</depth>
          <sample_count>19</sample_count>
          <value>0.</value>
          <norm_class_idx>0</norm_class_idx>
          <Tn>0</Tn>
          <complexity>0</complexity>
          <alpha>0.</alpha>
          <node_risk>1.4269005847953213e+000</node_risk>
          <tree_risk>0.</tree_risk>
          <tree_error>0.</tree_error>
          <splits>
            <_><var>788</var>
              <quality>9.7473630905151367e+000</quality>
              <le>5249.</le></_></splits></_>
        <_>
          <depth>8</depth>
          <sample_count>17</sample_count>
          <value>0.</value>
          <norm_class_idx>0</norm_class_idx>
          <Tn>0</Tn>
          <complexity>0</complexity>
          <alpha>0.</alpha>
          <node_risk>7.1345029239766156e-001</node_risk>
          <tree_risk>0.</tree_risk>
          <tree_error>0.</tree_error>
          <splits>
            <_><var>6706</var>
              <quality>1.0362572669982910e+001</quality>
              <le>8748.</le></_></splits></_>
        <_>
          <depth>9</depth>
          <sample_count>15</sample_count>
          <value>0.</value>
          <norm_class_idx>0</norm_class_idx>
          <Tn>0</Tn>
          <complexity>0</complexity>
          <alpha>0.</alpha>
          <node_risk>0.</node_risk>
          <tree_risk>0.</tree_risk>
          <tree_error>0.</tree_error></_>
        <_>
          <depth>9</depth>
          <sample_count>2</sample_count>
          <value>1.</value>
          <norm_class_idx>1</norm_class_idx>
          <Tn>0</Tn>
          <complexity>0</complexity>
          <alpha>0.</alpha>
          <node_risk>0.</node_risk>
          <tree_risk>0.</tree_risk>
          <tree_error>0.</tree_error></_>
        <_>
          <depth>8</depth>
          <sample_count>2</sample_count>
          <value>1.</value>
          <norm_class_idx>1</norm_class_idx>
          <Tn>0</Tn>
          <complexity>0</complexity>
          <alpha>0.</alpha>
          <node_risk>0.</node_risk>
          <tree_risk>0.</tree_risk>
          <tree_error>0.</tree_error></_>
        <_>
          <depth>6</depth>
          <sample_count>52</sample_count>
          <value>0.</value>
          <norm_class_idx>0</norm_class_idx>
          <Tn>0</Tn>
          <complexity>0</complexity>
          <alpha>0.</alpha>
          <node_risk>7.1345029239765978e-001</node_risk>
          <tree_risk>0.</tree_risk>
          <tree_error>0.</tree_error>
          <splits>
            <_><var>3712</var>
              <quality>3.1580984115600586e+001</quality>
              <le>-4.0550000000000000e+002</le></_></splits></_>
        <_>
          <depth>7</depth>
          <sample_count>39</sample_count>
          <value>0.</value>
          <norm_class_idx>0</norm_class_idx>
          <Tn>0</Tn>
          <complexity>0</complexity>
          <alpha>0.</alpha>
          <node_risk>0.</node_risk>
          <tree_risk>0.</tree_risk>
          <tree_error>0.</tree_error></_>
        <_>
          <depth>7</depth>
          <sample_count>13</sample_count>
          <value>0.</value>
          <norm_class_idx>0</norm_class_idx>
          <Tn>0</Tn>
          <complexity>0</complexity>
          <alpha>0.</alpha>
          <node_risk>7.1345029239766067e-001</node_risk>
          <tree_risk>0.</tree_risk>
          <tree_error>0.</tree_error>
          <splits>
            <_><var>3712</var>
              <quality>7.7894735336303711e+000</quality>
              <le>1154.</le></_></splits></_>
        <_>
          <depth>8</depth>
          <sample_count>2</sample_count>
          <value>1.</value>
          <norm_class_idx>1</norm_class_idx>
          <Tn>0</Tn>
          <complexity>0</complexity>
          <alpha>0.</alpha>
          <node_risk>0.</node_risk>
          <tree_risk>0.</tree_risk>
          <tree_error>0.</tree_error></_>
        <_>
          <depth>8</depth>
          <sample_count>11</sample_count>
          <value>0.</value>
          <norm_class_idx>0</norm_class_idx>
          <Tn>0</Tn>
          <complexity>0</complexity>
          <alpha>0.</alpha>
          <node_risk>0.</node_risk>
          <tree_risk>0.</tree_risk>
          <tree_error>0.</tree_error></_>
        <_>
          <depth>3</depth>
          <sample_count>52</sample_count>
          <value>0.</value>
          <norm_class_idx>0</norm_class_idx>
          <Tn>0</Tn>
          <complexity>0</complexity>
          <alpha>0.</alpha>
          <node_risk>1.0345029239766085e+001</node_risk>
          <tree_risk>0.</tree_risk>
          <tree_error>0.</tree_error>
          <splits>
            <_><var>4235</var>
              <quality>1.5201038360595703e+001</quality>
              <le>-9.1350000000000000e+002</le></_></splits></_>
        <_>
          <depth>4</depth>
          <sample_count>12</sample_count>
          <value>1.</value>
          <norm_class_idx>1</norm_class_idx>
          <Tn>0</Tn>
          <complexity>0</complexity>
          <alpha>0.</alpha>
          <node_risk>6.4327485380116922e-001</node_risk>
          <tree_risk>0.</tree_risk>
          <tree_error>0.</tree_error>
          <splits>
            <_><var>7787</var>
              <quality>4.5672516822814941e+000</quality>
              <le>-8.0850000000000000e+002</le></_></splits></_>
        <_>
          <depth>5</depth>
          <sample_count>1</sample_count>
          <value>0.</value>
          <norm_class_idx>0</norm_class_idx>
          <Tn>0</Tn>
          <complexity>0</complexity>
          <alpha>0.</alpha>
          <node_risk>0.</node_risk>
          <tree_risk>0.</tree_risk>
          <tree_error>0.</tree_error></_>
        <_>
          <depth>5</depth>
          <sample_count>11</sample_count>
          <value>1.</value>
          <norm_class_idx>1</norm_class_idx>
          <Tn>0</Tn>
          <complexity>0</complexity>
          <alpha>0.</alpha>
          <node_risk>0.</node_risk>
          <tree_risk>0.</tree_risk>
          <tree_error>0.</tree_error></_>
        <_>
          <depth>4</depth>
          <sample_count>40</sample_count>
          <value>0.</value>
          <norm_class_idx>0</norm_class_idx>
          <Tn>0</Tn>
          <complexity>0</complexity>
          <alpha>0.</alpha>
          <node_risk>6.4210526315789487e+000</node_risk>
          <tree_risk>0.</tree_risk>
          <tree_error>0.</tree_error>
          <splits>
            <_><var>7598</var>
              <quality>1.3351113319396973e+001</quality>
              <le>-1.3050000000000000e+002</le></_></splits></_>
        <_>
          <depth>5</depth>
          <sample_count>19</sample_count>
          <value>0.</value>
          <norm_class_idx>0</norm_class_idx>
          <Tn>0</Tn>
          <complexity>0</complexity>
          <alpha>0.</alpha>
          <node_risk>1.4269005847953213e+000</node_risk>
          <tree_risk>0.</tree_risk>
          <tree_error>0.</tree_error>
          <splits>
            <_><var>8317</var>
              <quality>9.5862121582031250e+000</quality>
              <le>2477.</le></_></splits></_>
        <_>
          <depth>6</depth>
          <sample_count>15</sample_count>
          <value>0.</value>
          <norm_class_idx>0</norm_class_idx>
          <Tn>0</Tn>
          <complexity>0</complexity>
          <alpha>0.</alpha>
          <node_risk>3.5672514619882989e-001</node_risk>
          <tree_risk>0.</tree_risk>
          <tree_error>0.</tree_error>
          <splits>
            <_><var>6879</var>
              <quality>9.3625726699829102e+000</quality>
              <le>-4.2055000000000000e+003</le></_></splits></_>
        <_>
          <depth>7</depth>
          <sample_count>1</sample_count>
          <value>1.</value>
          <norm_class_idx>1</norm_class_idx>
          <Tn>0</Tn>
          <complexity>0</complexity>
          <alpha>0.</alpha>
          <node_risk>0.</node_risk>
          <tree_risk>0.</tree_risk>
          <tree_error>0.</tree_error></_>
        <_>
          <depth>7</depth>
          <sample_count>14</sample_count>
          <value>0.</value>
          <norm_class_idx>0</norm_class_idx>
          <Tn>0</Tn>
          <complexity>0</complexity>
          <alpha>0.</alpha>
          <node_risk>0.</node_risk>
          <tree_risk>0.</tree_risk>
          <tree_error>0.</tree_error></_>
        <_>
          <depth>6</depth>
          <sample_count>4</sample_count>
          <value>1.</value>
          <norm_class_idx>1</norm_class_idx>
          <Tn>0</Tn>
          <complexity>0</complexity>
          <alpha>0.</alpha>
          <node_risk>6.4327485380116967e-001</node_risk>
          <tree_risk>0.</tree_risk>
          <tree_error>0.</tree_error></_>
        <_>
          <depth>5</depth>
          <sample_count>21</sample_count>
          <value>1.</value>
          <norm_class_idx>1</norm_class_idx>
          <Tn>0</Tn>
          <complexity>0</complexity>
          <alpha>0.</alpha>
          <node_risk>4.5029239766081863e+000</node_risk>
          <tree_risk>0.</tree_risk>
          <tree_error>0.</tree_error>
          <splits>
            <_><var>2341</var>
              <quality>7.7141599655151367e+000</quality>
              <le>-4906.</le></_></splits></_>
        <_>
          <depth>6</depth>
          <sample_count>7</sample_count>
          <value>0.</value>
          <norm_class_idx>0</norm_class_idx>
          <Tn>0</Tn>
          <complexity>0</complexity>
          <alpha>0.</alpha>
          <node_risk>3.5672514619883078e-001</node_risk>
          <tree_risk>0.</tree_risk>
          <tree_error>0.</tree_error>
          <splits>
            <_><var>164</var>
              <quality>3.7574295997619629e+000</quality>
              <le>-606.</le></_></splits></_>
        <_>
          <depth>7</depth>
          <sample_count>5</sample_count>
          <value>0.</value>
          <norm_class_idx>0</norm_class_idx>
          <Tn>0</Tn>
          <complexity>0</complexity>
          <alpha>0.</alpha>
          <node_risk>0.</node_risk>
          <tree_risk>0.</tree_risk>
          <tree_error>0.</tree_error></_>
        <_>
          <depth>7</depth>
          <sample_count>2</sample_count>
          <value>0.</value>
          <norm_class_idx>0</norm_class_idx>
          <Tn>0</Tn>
          <complexity>0</complexity>
          <alpha>0.</alpha>
          <node_risk>3.5672514619883033e-001</node_risk>
          <tree_risk>0.</tree_risk>
          <tree_error>0.</tree_error></_>
        <_>
          <depth>6</depth>
          <sample_count>14</sample_count>
          <value>1.</value>
          <norm_class_idx>1</norm_class_idx>
          <Tn>0</Tn>
          <complexity>0</complexity>
          <alpha>0.</alpha>
          <node_risk>6.4327485380117011e-001</node_risk>
          <tree_risk>0.</tree_risk>
          <tree_error>0.</tree_error>
          <splits>
            <_><var>7597</var>
              <quality>5.2807016372680664e+000</quality>
              <le>5.4005000000000000e+003</le></_></splits></_>
        <_>
          <depth>7</depth>
          <sample_count>13</sample_count>
          <value>1.</value>
          <norm_class_idx>1</norm_class_idx>
          <Tn>0</Tn>
          <complexity>0</complexity>
          <alpha>0.</alpha>
          <node_risk>0.</node_risk>
          <tree_risk>0.</tree_risk>
          <tree_error>0.</tree_error></_>
        <_>
          <depth>7</depth>
          <sample_count>1</sample_count>
          <value>0.</value>
          <norm_class_idx>0</norm_class_idx>
          <Tn>0</Tn>
          <complexity>0</complexity>
          <alpha>0.</alpha>
          <node_risk>0.</node_risk>
          <tree_risk>0.</tree_risk>
          <tree_error>0.</tree_error></_></nodes></_>
    <_>
      <best_tree_idx>-1</best_tree_idx>
      <nodes>
        <_>
          <depth>0</depth>
          <sample_count>513</sample_count>
          <value>0.</value>
          <norm_class_idx>0</norm_class_idx>
          <Tn>0</Tn>
          <complexity>0</complexity>
          <alpha>0.</alpha>
          <node_risk>1.1332553606237816e+002</node_risk>
          <tree_risk>0.</tree_risk>
          <tree_error>0.</tree_error>
          <splits>
            <_><var>5706</var>
              <quality>1.3793023681640625e+002</quality>
              <le>1.5515000000000000e+003</le></_></splits></_>
        <_>
          <depth>1</depth>
          <sample_count>384</sample_count>
          <value>1.</value>
          <norm_class_idx>1</norm_class_idx>
          <Tn>0</Tn>
          <complexity>0</complexity>
          <alpha>0.</alpha>
          <node_risk>5.1633528265107216e+001</node_risk>
          <tree_risk>0.</tree_risk>
          <tree_error>0.</tree_error>
          <splits>
            <_><var>4677</var>
              <quality>9.2545578002929688e+001</quality>
              <le>-1.1519500000000000e+004</le></_></splits></_>
        <_>
          <depth>2</depth>
          <sample_count>97</sample_count>
          <value>0.</value>
          <norm_class_idx>0</norm_class_idx>
          <Tn>0</Tn>
          <complexity>0</complexity>
          <alpha>0.</alpha>
          <node_risk>1.8777777777777775e+001</node_risk>
          <tree_risk>0.</tree_risk>
          <tree_error>0.</tree_error>
          <splits>
            <_><var>6934</var>
              <quality>2.7749965667724609e+001</quality>
              <le>-3.0950000000000000e+002</le></_></splits></_>
        <_>
          <depth>3</depth>
          <sample_count>44</sample_count>
          <value>1.</value>
          <norm_class_idx>1</norm_class_idx>
          <Tn>0</Tn>
          <complexity>0</complexity>
          <alpha>0.</alpha>
          <node_risk>5.3645224171539958e+000</node_risk>
          <tree_risk>0.</tree_risk>
          <tree_error>0.</tree_error>
          <splits>
            <_><var>251</var>
              <quality>1.3198544502258301e+001</quality>
              <le>-4.4350000000000000e+002</le></_></splits></_>
        <_>
          <depth>4</depth>
          <sample_count>6</sample_count>
          <value>0.</value>
          <norm_class_idx>0</norm_class_idx>
          <Tn>0</Tn>
          <complexity>0</complexity>
          <alpha>0.</alpha>
          <node_risk>3.2943469785575052e-001</node_risk>
          <tree_risk>0.</tree_risk>
          <tree_error>0.</tree_error>
          <splits>
            <_><var>3708</var>
              <quality>3.6822612285614014e+000</quality>
              <le>7.4645000000000000e+003</le></_></splits></_>
        <_>
          <depth>5</depth>
          <sample_count>1</sample_count>
          <value>1.</value>
          <norm_class_idx>1</norm_class_idx>
          <Tn>0</Tn>
          <complexity>0</complexity>
          <alpha>0.</alpha>
          <node_risk>0.</node_risk>
          <tree_risk>0.</tree_risk>
          <tree_error>0.</tree_error></_>
        <_>
          <depth>5</depth>
          <sample_count>5</sample_count>
          <value>0.</value>
          <norm_class_idx>0</norm_class_idx>
          <Tn>0</Tn>
          <complexity>0</complexity>
          <alpha>0.</alpha>
          <node_risk>0.</node_risk>
          <tree_risk>0.</tree_risk>
          <tree_error>0.</tree_error></_>
        <_>
          <depth>4</depth>
          <sample_count>38</sample_count>
          <value>1.</value>
          <norm_class_idx>1</norm_class_idx>
          <Tn>0</Tn>
          <complexity>0</complexity>
          <alpha>0.</alpha>
          <node_risk>2.0116959064327489e+000</node_risk>
          <tree_risk>0.</tree_risk>
          <tree_error>0.</tree_error>
          <splits>
            <_><var>673</var>
              <quality>1.2274489402770996e+001</quality>
              <le>-2.0405000000000000e+003</le></_></splits></_>
        <_>
          <depth>5</depth>
          <sample_count>2</sample_count>
          <value>0.</value>
          <norm_class_idx>0</norm_class_idx>
          <Tn>0</Tn>
          <complexity>0</complexity>
          <alpha>0.</alpha>
          <node_risk>0.</node_risk>
          <tree_risk>0.</tree_risk>
          <tree_error>0.</tree_error></_>
        <_>
          <depth>5</depth>
          <sample_count>36</sample_count>
          <value>1.</value>
          <norm_class_idx>1</norm_class_idx>
          <Tn>0</Tn>
          <complexity>0</complexity>
          <alpha>0.</alpha>
          <node_risk>6.7056530214424903e-001</node_risk>
          <tree_risk>0.</tree_risk>
          <tree_error>0.</tree_error>
          <splits>
            <_><var>3708</var>
              <quality>1.2200779914855957e+001</quality>
              <le>26749.</le></_></splits></_>
        <_>
          <depth>6</depth>
          <sample_count>35</sample_count>
          <value>1.</value>
          <norm_class_idx>1</norm_class_idx>
          <Tn>0</Tn>
          <complexity>0</complexity>
          <alpha>0.</alpha>
          <node_risk>0.</node_risk>
          <tree_risk>0.</tree_risk>
          <tree_error>0.</tree_error></_>
        <_>
          <depth>6</depth>
          <sample_count>1</sample_count>
          <value>0.</value>
          <norm_class_idx>0</norm_class_idx>
          <Tn>0</Tn>
          <complexity>0</complexity>
          <alpha>0.</alpha>
          <node_risk>0.</node_risk>
          <tree_risk>0.</tree_risk>
          <tree_error>0.</tree_error></_>
        <_>
          <depth>3</depth>
          <sample_count>53</sample_count>
          <value>0.</value>
          <norm_class_idx>0</norm_class_idx>
          <Tn>0</Tn>
          <complexity>0</complexity>
          <alpha>0.</alpha>
          <node_risk>6.9181286549707579e+000</node_risk>
          <tree_risk>0.</tree_risk>
          <tree_error>0.</tree_error>
          <splits>
            <_><var>1</var>
              <quality>2.0783899307250977e+001</quality>
              <le>2.8671500000000000e+004</le></_></splits></_>
        <_>
          <depth>4</depth>
          <sample_count>7</sample_count>
          <value>1.</value>
          <norm_class_idx>1</norm_class_idx>
          <Tn>0</Tn>
          <complexity>0</complexity>
          <alpha>0.</alpha>
          <node_risk>0.</node_risk>
          <tree_risk>0.</tree_risk>
          <tree_error>0.</tree_error></_>
        <_>
          <depth>4</depth>
          <sample_count>46</sample_count>
          <value>0.</value>
          <norm_class_idx>0</norm_class_idx>
          <Tn>0</Tn>
          <complexity>0</complexity>
          <alpha>0.</alpha>
          <node_risk>4.6120857699805065e+000</node_risk>
          <tree_risk>0.</tree_risk>
